id,f0,f1,f2,f3,f4,f5,f6,f7,f8,f9,f10,f11,f12,f13,f14,f15,f16,f17,f18,f19,f20,f21,f22,f23,f24,f25,f26,f27,f28,f29,f30,f31,f32,f33,f34,f35,f36,f37,f38,f39,f40,f41,f42,f43,f44,f45,f46,f47,f48,f49,f50,f51,f52,f53,f54,f55,f56,f57,f58,f59,f60,f61,f62,f63,f64,f65,f66,f67,f68,f69,f70,f71,f72,f73,f74,f75,f76,f77,f78,f79,f80,f81,f82,f83,f84,f85,f86,f87,f88,f89,f90,f91,f92,f93,f94,f95,f96,f97,f98,f99,f100,f101,f102,f103,f104,f105,f106,f107,f108,f109,f110,f111,f112,f113,f114,f115,f116,f117,f118,f119,f120,f121,f122,f123,f124,f125,f126,f127,f128,f129,f130,f131,f132,f133,f134,f135,f136,f137,f138,f139,f140,f141,f142,f143,f144,f145,f146,f147,f148,f149,f150,f151,f152,f153,f154,f155,f156,f157,f158,f159,f160,f161,f162,f163,f164,f165,f166,f167,f168,f169,f170,f171,f172,f173,f174,f175,f176,f177,f178,f179,f180,f181,f182,f183,f184,f185,f186,f187,f188,f189,f190,f191,f192,f193,f194,f195,f196,f197,f198,f199,f200,f201,f202,f203,f204,f205,f206,f207,f208,f209,f210,f211,f212,f213,f214,f215,f216,f217,f218,f219,f220,f221,f222,f223,f224,f225,f226,f227,f228,f229,f230,f231,f232,f233,f234,f235,f236,f237,f238,f239,f240,f241,f242,f243,f244,f245,f246,f247,f248,f249,f250,f251,f252,f253,f254,f255,f256,f257,f258,f259,f260,f261,f262,f263,f264,f265,f266,f267,f268,f269,f270,f271,f272,f273,f274,f275,f276,f277,f278,f279,f280,f281,f282,f283,f284,f285,f286,f287,f288,f289,f290,f291,f292,f293,f294,f295,f296,f297,f298,f299,f300,f301,f302,f303,f304,f305,f306,f307,f308,f309,f310,f311,f312,f313,f314,f315,f316,f317,f318,f319,f320,f321,f322,f323,f324,f325,f326,f327,f328,f329,f330,f331,f332,f333,f334,f335,f336,f337,f338,f339,f340,f341,f342,f343,f344,f345,f346,f347,f348,f349,f350,f351,f352,f353,f354,f355,f356,f357,f358,f359,f360,f361,f362,f363,f364,f365,f366,f367,f368,f369,f370,f371,f372,f373,f374,f375,f376,f377,f378,f379,f380,f381,f382,f383,f384,f385,f386,f387,f388,f389,f390,f391,f392,f393,f394,f395,f396,f397,f398,f399,f400,f401,f402,f403,f404,f405,f406,f407,f408,f409,f410,f411,f412,f413,f414,f415,f416,f417,f418,f419,f420,f421,f422,f423,f424,f425,f426,f427,f428,f429,f430,f431,f432,f433,f434,f435,f436,f437,f438,f439,f440,f441,f442,f443,f444,f445,f446,f447,f448,f449,f450,f451,f452,f453,f454,f455,f456,f457,f458,f459,f460,f461,f462,f463,f464,f465,f466,f467,f468,f469,f470,f471,f472,f473,f474,f475,f476,f477,f478,f479,f480,f481,f482,f483,f484,f485,f486,f487,f488,f489,f490,f491,f492,f493,f494,f495,f496,f497,f498,f499,f500,f501,f502,f503,f504,f505,f506,f507,f508,f509,f510,f511,f512,f513,f514,f515,f516,f517,f518,f519,f520,f521,f522,f523,f524,f525,f526,f527,f528,f529,f530,f531,f532,f533,f534,f535,f536,f537,f538,f539,f540,f541,f542,f543,f544,f545,f546,f547,f548,f549,f550,f551,f552,f553,f554,f555,f556,f557,f558,f559,f560,f561,f562,f563,f564,f565,f566,f567,f568,f569,f570,f571,f572,f573,f574,f575,f576,f577,f578,f579,f580,f581,f582,f583,f584,f585,f586,f587,f588,f589,f590,f591,f592,f593,f594,f595,f596,f597,f598,f599,f600,f601,f602,f603,f604,f605,f606,f607,f608,f609,f610,f611,f612,f613,f614,f615,f616,f617,f618,f619,f620,f621,f622,f623,f624,f625,f626,f627,f628,f629,f630,f631,f632,f633,f634,f635,f636,f637,f638,f639,f640,f641,f642,f643,f644,f645,f646,f647,f648,f649,f650,f651,f652,f653,f654,f655,f656,f657,f658,f659,f660,f661,f662,f663,f664,f665,f666,f667,f668,f669,f670,f671,f672,f673,f674,f675,f676,f677,f678,f679,f680,f681,f682,f683,f684,f685,f686,f687,f688,f689,f690,f691,f692,f693,f694,f695,f696,f697,f698,f699,f700,f701,f702,f703,f704,f705,f706,f707,f708,f709,f710,f711,f712,f713,f714,f715,f716,f717,f718,f719,f720,f721,f722,f723,f724,f725,f726,f727,f728,f729,f730,f731,f732,f733,f734,f735,f736,f737,f738,f739,f740,f741,f742,f743,f744,f745,f746,f747,f748,f749,f750,f751,f752,f753,f754,f755,f756,f757,f758,f759,f760,f761,f762,f763,f764,f765,f766,f767,f768,f769,f770,f771,f772,f773,f774,f775,f776,f777,f778,f779,f780,f781,f782,f783,f784,f785,f786,f787,f788,f789,f790,f791,f792,f793,f794,f795,f796,f797,f798,f799,f800,f801,f802,f803,f804,f805,f806,f807,f808,f809,f810,f811,f812,f813,f814,f815,f816,f817,f818,f819,f820,f821,f822,f823,f824,f825,f826,f827,f828,f829,f830,f831,f832,f833,f834,f835,f836,f837,f838,f839,f840,f841,f842,f843,f844,f845,f846,f847,f848,f849,f850,f851,f852,f853,f854,f855,f856,f857,f858,f859,f860,f861,f862,f863,f864,f865,f866,f867,f868,f869,f870,f871,f872,f873,f874,f875,f876,f877,f878,f879,f880,f881,f882,f883,f884,f885,f886,f887,f888,f889,f890,f891,f892,f893,f894,f895,f896,f897,f898,f899,f900,f901,f902,f903,f904,f905,f906,f907,f908,f909,f910,f911,f912,f913,f914,f915,f916,f917,f918,f919,f920,f921,f922,f923,f924,f925,f926,f927,f928,f929,f930,f931,f932,f933,f934,f935,f936,f937,f938,f939,f940,f941,f942,f943,f944,f945,f946,f947,f948,f949,f950,f951,f952,f953,f954,f955,f956,f957,f958,f959,f960,f961,f962,f963,f964,f965,f966,f967,f968,f969,f970,f971,f972,f973,f974,f975,f976,f977,f978,f979,f980,f981,f982,f983,f984,f985,f986,f987,f988,f989,f990,f991,f992,f993,f994,f995,f996,f997,f998,f999,f1000,f1001,f1002,f1003,f1004,f1005,f1006,f1007,f1008,f1009,f1010,f1011,f1012,f1013,f1014,f1015,f1016,f1017,f1018,f1019,f1020,f1021,f1022,f1023,f1024,f1025,f1026,f1027,f1028,f1029,f1030,f1031,f1032,f1033,f1034,f1035,f1036,f1037,f1038,f1039,f1040,f1041,f1042,f1043,f1044,f1045,f1046,f1047,f1048,f1049,f1050,f1051,f1052,f1053,f1054,f1055,f1056,f1057,f1058,f1059,f1060,f1061,f1062,f1063,f1064,f1065,f1066,f1067,f1068,f1069,f1070,f1071,f1072,f1073,f1074,f1075,f1076,f1077,f1078,f1079,f1080,f1081,f1082,f1083,f1084,f1085,f1086,f1087,f1088,f1089,f1090,f1091,f1092,f1093,f1094,f1095,f1096,f1097,f1098,f1099,f1100,f1101,f1102,f1103,f1104,f1105,f1106,f1107,f1108,f1109,f1110,f1111,f1112,f1113,f1114,f1115,f1116,f1117,f1118,f1119,f1120,f1121,f1122,f1123,f1124,f1125,f1126,f1127,f1128,f1129,f1130,f1131,f1132,f1133,f1134,f1135,f1136,f1137,f1138,f1139,f1140,f1141,f1142,f1143,f1144,f1145,f1146,f1147,f1148,f1149,f1150,f1151,f1152,f1153,f1154,f1155,f1156,f1157,f1158,f1159,f1160,f1161,f1162,f1163,f1164,f1165,f1166,f1167,f1168,f1169,f1170,f1171,f1172,f1173,f1174,f1175,f1176,f1177,f1178,f1179,f1180,f1181,f1182,f1183,f1184,f1185,f1186,f1187,f1188,f1189,f1190,f1191,f1192,f1193,f1194,f1195,f1196,f1197,f1198,f1199,f1200,f1201,f1202,f1203,f1204,f1205,f1206,f1207,f1208,f1209,f1210,f1211,f1212,f1213,f1214,f1215,f1216,f1217,f1218,f1219,f1220,f1221,f1222,f1223,f1224,f1225,f1226,f1227,f1228,f1229,f1230,f1231,f1232,f1233,f1234,f1235,f1236,f1237,f1238,f1239,f1240,f1241,f1242,f1243,f1244,f1245,f1246,f1247,f1248,f1249,f1250,f1251,f1252,f1253,f1254,f1255,f1256,f1257,f1258,f1259,f1260,f1261,f1262,f1263,f1264,f1265,f1266,f1267,f1268,f1269,f1270,f1271,f1272,f1273,f1274,f1275,f1276,f1277,f1278,f1279
9BK7_1|Chain,0.067104094,0.15781577,0.114339426,-0.039834976,-0.12193168,-0.12122618,0.050579086,-0.20247668,-0.13708906,0.00743656,0.21399896,0.028495125,-0.019172976,0.16165423,-0.07498043,-0.08236303,0.39999238,0.02847236,0.002299752,-0.06934998,0.06743522,0.026701486,-0.05385081,0.20005974,0.11364427,-0.09140665,0.07414069,-0.0006908119,0.07020192,-0.1793212,0.09864123,-0.048835814,-0.023601886,0.088522464,0.15633893,0.024528924,-0.013108547,0.18448055,0.011023246,0.079782225,0.10208325,0.09800648,0.06874504,0.07719462,0.0067040483,0.03054746,-0.0004496338,0.0675399,0.106823534,-0.0039095683,0.09724853,0.021675495,0.091310106,0.09448718,0.21203223,0.1595366,-0.08920474,-0.037635025,-0.01619983,0.12048587,0.13113953,0.16134824,0.047280926,0.022740304,0.031975903,0.048457198,-0.012476433,-0.050426956,-0.070281446,-0.10971568,0.51556545,0.079987764,0.11663239,-0.29409918,-0.023353426,0.12597162,0.10381069,0.1662208,0.007952729,0.01147693,0.21958879,-0.19768924,-0.08895672,0.11277579,0.089258455,-0.040731095,0.10505701,-0.03399361,0.105720185,0.19213822,0.14344624,-0.06278005,0.022022335,-0.17727336,0.11029999,-0.020064287,0.046632912,-0.13536116,0.092017636,-0.08978257,0.0862936,0.14414589,0.023551935,-0.05745845,0.16009885,0.0100141475,0.11716023,0.13435076,0.065096505,0.15237758,-0.052469127,0.11829903,0.012013323,-0.03780737,-0.15956168,0.21841331,-0.038630594,0.1014634,-0.05353045,0.055866264,0.08740993,0.10694938,0.019803768,0.18281926,0.026145956,-0.08221187,0.11666193,-0.019444194,0.00038517654,-0.11620491,0.006824574,0.082620405,0.17873815,0.036220007,-0.059614412,-0.06624458,0.13562688,-0.083588734,0.036028992,-0.120322816,0.047564924,0.042876747,0.025351726,-0.020169964,-0.09081531,-0.17728691,-0.08371285,0.033497185,0.039603807,-0.048829693,0.082753204,0.040515073,0.07658661,-0.10661599,0.25682634,0.24285762,0.032130998,-0.044065874,0.0055668354,0.060645152,0.077077605,0.2545783,0.035967305,-0.07385019,0.03202949,0.07332185,0.025922313,-0.0065298053,0.07854343,0.24657695,0.06731208,0.28486454,-0.028497986,-0.060191788,0.110218555,-0.002481507,-0.20445591,-0.13750955,0.08656836,-0.019348234,-0.111231096,-0.035360336,-0.046499807,-0.054065682,0.10759145,-0.11011358,0.13731521,0.0048444564,-0.19910504,0.011407203,0.012569205,0.07683298,0.097367525,0.065978035,0.10983305,0.07432255,-0.0083658425,0.046516612,-0.060851995,0.25624785,-0.113655746,-0.040594116,0.0020822592,-0.08263516,0.08325458,-0.17473659,0.032144472,-0.09162238,0.09114687,0.034515504,-0.054933444,0.052540522,0.23758955,-0.053051293,0.18352881,-0.0026645316,0.05500773,0.20074907,-0.044937935,-0.02975597,0.07461434,-0.037094433,-0.03506469,0.019159885,-0.0004834646,-0.05942285,0.051536,0.012810008,-0.20051657,-0.050398935,0.10002267,0.040579252,-0.043253984,-0.17564362,-0.111900546,0.04113671,-0.07273469,-0.14976534,0.12671332,0.0789855,-0.10686834,-0.008662708,0.28519726,0.1296119,-0.0072584804,-0.05844336,0.092808574,0.09772752,0.087662525,0.13267411,-0.07565968,-0.15140212,-0.26599792,0.03366793,0.13033354,-0.069014974,0.010928728,-0.08950782,-0.098769575,0.009271674,-0.018411951,0.08674849,0.091961354,-0.09883507,0.10853745,0.073538296,-0.05012425,-0.08524625,0.14742821,-0.017136447,-0.08109416,-0.026403097,-0.0043697194,-0.1621666,-0.07588373,-0.065900646,-0.049942166,-0.15796931,0.028213728,0.1021536,0.06310787,-0.033083368,-0.08199777,0.019949004,-0.06413369,0.06251849,-0.124839075,0.0828256,-0.04592365,0.02541091,0.07716391,0.13803436,-0.064033315,-0.083444834,0.035855167,-0.08624258,0.07745282,-0.17317984,0.22702716,0.17332047,0.16628033,-0.07846394,-0.18799944,0.09397521,-0.05305635,0.49407068,-0.06900474,0.025422748,0.003996124,0.06841633,-0.071080364,0.10840611,0.13636819,0.14842166,-0.016538959,0.120753564,-0.010261773,0.068644024,0.01099678,0.113848045,-0.11954773,-0.04811386,-0.058830317,0.057620265,-0.16045722,-0.06197853,0.19455712,-0.055982955,-0.14146022,0.08767449,0.19974492,-0.0851964,-0.1359554,-0.013275102,0.05941752,0.022264145,-0.14092973,0.043605596,-0.13266024,-0.10935945,-0.13991259,-0.12119751,0.034902494,0.031533662,0.23157409,0.18067437,0.12569173,-0.10561096,-0.05346437,-0.025229877,0.02510428,0.15136632,0.055635903,0.20840314,-0.22498018,0.100512885,0.18955398,-0.027911304,0.02063557,-0.060761847,0.18800238,-0.14382386,-0.12000398,-0.20918386,0.038303453,0.06352011,-0.21549167,-0.08464216,0.021492915,0.054526005,0.0405678,0.029613536,-0.07701877,-0.032653153,-0.12638976,0.057184495,0.03943597,-0.145105,0.12257294,-0.019469189,-0.117558196,0.0023539697,0.27147013,-0.18350807,0.26147085,-0.028162621,0.026463123,-0.11127175,0.04709238,-0.053886488,0.068313345,0.18566103,0.118770115,0.035278145,-0.16568553,0.025821682,-0.02566191,-0.12887599,0.11014254,0.08094558,-0.022824243,0.010888935,-0.110141836,-0.08724545,-0.087010846,0.08838564,0.1220657,0.06112654,0.19052541,-0.11630601,0.004752232,0.2961335,0.05918539,0.09795459,-0.09511024,-0.080986924,-0.008702217,0.0053011593,-0.1063237,0.027436303,0.15803948,0.041593432,-0.069883786,0.09462051,-0.03760637,-0.019500965,0.059944753,-0.022122037,-0.15506168,0.25256673,0.0013474129,0.13947296,0.22807059,-0.03361546,-0.009223113,0.09908234,0.07220406,0.039141178,-0.030376501,0.013405699,0.10457442,0.03640865,0.043251026,0.27031752,0.03031757,0.068120986,-0.053965624,0.06826243,0.1267326,-0.09705724,-1.6046679,-0.010612233,0.0044970433,0.02792749,-0.14982268,-0.0441221,-0.073687404,-0.0576052,0.002554359,0.061457984,-0.17331056,0.084535725,0.03586778,0.10614064,-0.06666131,0.011728548,0.22180529,-0.16843751,-0.00815799,0.0060836487,-0.06829239,-0.029448345,0.10287742,0.040577803,-0.01034872,-0.13845542,-0.10060683,-0.059463955,-0.060679525,0.14549822,0.22493844,-0.038369033,0.011768398,0.08671029,0.028216532,0.08325224,-0.044800546,-0.120897874,-0.026177738,0.021059439,0.076758,-0.040379822,0.2794906,-0.075090446,-0.015658414,0.029095514,-0.093322456,-0.005347108,0.03881951,-0.052401707,-0.02092632,-0.08017258,0.18581457,-0.04966191,-0.12235838,-0.03505908,-0.109325774,0.13531305,0.046609264,0.06363097,0.06902831,0.08593704,0.0029577943,0.0468988,0.18337673,0.051880132,0.20908822,-0.13829581,-0.067274034,0.18267135,-0.036132418,0.032944385,0.021809716,-0.0889637,0.012969803,0.119815744,0.10110905,0.038379796,-0.16460894,0.1622842,-0.013211679,0.09405286,0.04215723,0.036596883,-0.006037859,0.063733175,-0.06765165,0.11253686,0.22232448,0.022229321,0.20308064,-0.12975074,0.062173326,-0.07733107,0.012954221,-0.020207377,0.16557369,0.03337076,-0.09136267,0.1803986,0.15540536,-0.18817332,0.12899761,0.0269895,0.09896041,0.01585467,-0.07121429,0.11276117,0.087818444,-0.018510709,0.10218842,0.22265981,0.09301396,0.1797032,0.15300658,0.0121,0.14800864,-0.07250992,-0.0860334,0.02867483,0.14453892,-0.018977376,-0.08116079,0.05469272,0.088050805,-0.010560384,0.18901727,0.11180294,0.015683398,-0.06816594,0.30838493,-0.04499389,-0.12937798,-0.05489994,-0.0020506883,-0.10230189,0.087725066,0.082818314,-0.09735315,0.12385343,-0.10204497,-0.0031696209,-0.035655946,-0.14659496,0.049044337,-0.06430732,-0.0138188675,0.034875933,0.08261799,0.0029668175,-0.03497998,-0.011901317,-0.016180662,-0.09274938,0.074587606,0.018412583,0.0052470774,-0.067332804,-0.021719435,0.029125841,0.06466951,-0.0205754,-0.029698437,0.05620712,-0.0076123034,0.1377852,-0.12457147,0.12693425,-0.118743,-0.0010729585,-0.06807441,0.11323888,-0.10691335,0.059468567,0.09056769,-0.09188412,-0.030319406,0.09900356,-0.02345931,0.050248064,-0.069202036,0.04433348,-0.041857835,-0.06925214,0.008107682,0.08756994,0.081943244,-0.08450116,-0.08133127,-0.021345261,-0.19994463,-0.05239497,0.03404566,0.033479515,0.11860684,0.13136482,1.424462,0.047422543,-0.0666678,0.04164509,-0.22657017,-0.071354814,0.20940626,0.03635263,-0.072431475,-0.082877815,0.09476569,0.08162288,0.019355083,-16.37251,0.10059832,0.3148092,0.08380834,-0.017768564,0.049203377,0.08063872,0.0054907324,0.019732567,0.007966871,0.070273176,0.011101176,0.14341038,-0.088298514,-0.06298187,-0.11524186,0.12576963,0.1273533,-0.024627646,-0.1280476,-0.05942376,-0.012628277,-0.1197522,0.049625736,0.034801695,-0.08469631,0.0928935,0.039683215,-0.05912931,0.2150399,0.026699776,-0.18363172,0.22570625,0.06311072,-0.0155105805,0.08328552,0.12990974,0.04161032,0.07512264,0.092449896,0.0076013883,0.08875271,0.02740805,-0.015940133,-0.1565984,0.12746617,-0.074533984,-0.03427541,0.0026294198,0.04942487,0.044838764,-0.009411978,0.1779531,0.056414243,-0.15920536,-0.027036134,-0.089640625,0.12014496,0.13717923,-0.044672724,0.06253752,0.02684274,0.14411977,-0.111850485,0.12768993,0.039101038,0.16104567,0.12115648,-0.046386447,-0.0021328868,-0.042844515,0.02074793,-0.123327844,0.105734915,-0.05732849,0.090559445,-0.0037207073,0.10357132,0.24556899,0.0029321583,0.0390583,0.09594717,0.030638535,0.16453816,-0.09024329,0.0022950568,-0.17869121,0.013290876,-0.014028708,0.07697244,0.04605313,0.077592336,-0.09588581,0.052160013,0.08695982,-0.16839601,0.016214008,-0.09067726,-0.08295084,-0.05004401,-0.015455378,0.036985405,0.0099344915,-0.05592611,0.014533097,-0.029611513,-0.05458495,-0.03375823,-0.0045869923,0.052826192,0.13383724,-0.17208904,0.09497488,-0.12075469,0.04177083,-0.07472283,-0.09059017,-0.013727753,0.13393745,-0.04698542,0.055261817,-0.053668287,-0.09682288,-0.05636999,0.04219691,-0.090317324,0.04809639,-0.051426046,0.13101816,0.19558808,-0.08131301,0.024456514,0.16120027,-0.048443243,0.0025847196,-0.0744932,0.023265477,0.054568946,0.04519509,0.05359076,0.11061146,-0.043764032,0.17425457,0.018765299,0.07990679,-0.0083823325,-0.0020036662,0.19616273,-0.044785693,0.019840369,-0.09391562,0.035639875,-0.09452308,-0.1108328,-0.037000097,0.15629049,-0.12765224,0.10425559,-0.035669066,0.048580687,0.17075895,-0.12537399,0.3800611,0.12439645,0.034607008,0.09340263,0.017720463,-0.044725504,-0.00056831894,-0.030321345,-0.08160507,0.08709401,-0.00028443336,0.0049335207,0.05201115,0.11182281,0.00087855273,0.005142225,0.14592834,0.09168077,-0.019007726,-0.10239351,0.07416272,0.16393599,0.18480265,-0.063509524,0.011978653,0.027079908,-0.14394374,0.051001027,0.11137858,0.14402106,-0.044105437,0.07675281,0.20993373,0.0051107123,0.036776647,0.081756495,-0.08126585,0.0245886,0.011218928,0.17361453,-0.098240845,-0.038391486,0.030591683,0.10165305,-0.022984743,-0.061167467,-0.041658733,-0.07033632,-0.0364448,0.089091435,0.100765064,-0.049370274,0.037538655,-0.10327803,0.0038369298,0.075366326,-0.274734,-0.13422078,-0.2841919,0.0032680153,0.057185035,-0.17079975,-0.09343439,0.13445926,0.048959516,0.00034573057,0.0014302194,0.034119993,0.19496542,-0.031842094,0.013351819,-0.0074251946,0.14708684,0.020983992,0.016620884,0.019263621,-0.1526619,0.31759802,-0.0058674337,0.022875268,-0.005049083,-0.01083226,0.025746953,0.18734004,0.07246843,0.06252367,-0.12762459,3.1293106,-0.03512499,0.048333634,0.009416485,0.034108393,-0.038198676,0.069679946,0.0336271,-0.079296306,0.045082252,-0.07887789,-0.054503433,0.15976106,-0.035845663,-0.35026821,0.043590665,-0.03683992,0.06631947,-0.77833456,0.09989322,0.23892574,0.03754183,0.04428811,-0.0753263,-0.012485499,0.31133777,-0.050463345,0.0595606,0.09895325,-0.14488667,0.16930531,0.13337377,0.026247011,-0.061415892,0.072167024,-0.051304653,0.08444553,-0.0015399979,0.06656984,-0.16273634,-0.10622035,0.08798941,0.06387687,0.042065524,0.019090075,-0.13888769,0.017333519,-0.059225198,0.0759444,-0.0609217,-0.033223104,-0.06477243,0.049199045,0.043504924,-0.10141023,-0.17692736,0.1477264,0.22872078,0.02071141,-0.08375121,-0.101530485,0.13733624,0.090673804,-0.0075489613,-0.055511415,-0.15137112,0.062037893,0.3356111,0.01497141,-0.070311286,-0.048750594,-0.074132755,0.09584684,0.14053597,-0.07763142,0.031508423,0.023671009,-0.063259944,-0.030351875,0.14085488,0.06186422,0.024357047,-0.045064468,0.082106456,0.077868335,0.19053027,0.038508028,0.10857581,0.025477977,0.11704535,0.094767734,0.1424677,0.06624851,-0.23309588,0.0034901584,0.032114655,0.19186106,-0.047166325,0.039899636,0.0926093,-0.0084148785,-0.09982546,-0.051838238,-0.099302724,-0.1598941,-0.08647504,0.17457972,0.11711633,0.021318331,-0.01252973,-0.035450324,0.17115654,-0.10323549,0.15138608,-0.04923687,0.053839024,-0.007463303,0.17115644,-0.13650124,-0.10862678,0.0072994963,-0.020841591,-0.020912202,0.17794591,-0.056337073,-0.07085196,-0.114253305,0.011487208,0.11957847,0.20908438,0.007119767,0.21791953,0.07379787,0.09345342,0.061723012,-0.033425946,0.025165534,0.001291481,0.07236974,0.034199297,0.23921087,-0.055719577,0.12629417,-0.08767955,0.18635494,0.09013511,-0.10721801,-0.13571647,0.10331395,-0.007325056,0.08779047,0.15311114,0.078091994,0.07763451,0.19204271,-0.09945852,-0.20654987,0.26719487,0.03574531,0.21679118,0.073302306,0.047079757,0.15092422,-0.069682,-0.0036720566,0.25550807,0.09285336,0.13460736,-0.076002315,0.0032528224,-0.030535104,-0.05605623,0.059983183,-0.12950711,-0.007189339,-0.0009594606,-0.031444605,-0.13633683,0.08259997,-0.082794785,-0.081877984,0.18475759,-0.06780728,0.007422795,-0.031177627,-0.075043425,0.07496553,-0.10068471,-0.05217889,-0.10002128,-0.043521024,-0.1623381,0.18187003,0.0904511,0.08863043,0.14181638,-0.019345699,0.072845265,0.04361772,-0.040626116,0.030789021,0.14058365,0.019661194,-0.020645693,0.013031667,0.006701548,-0.040702604,0.06565099,-0.046631206,0.093994044,-0.13580048,-0.034642283,0.098531805,-0.0051785717,-0.07588027,0.094137326,0.25412267,0.11614734,0.081789866,0.043468907,0.009216293,0.009883253,0.0715734,0.06617589,-0.07155994,0.062250674,-0.35882682,0.09564988,-0.056621972,-0.09479972,-0.07707125,0.0034513294,0.008168168,0.11171331,-0.17603557,0.19432425,-0.06808139,-0.05143491,0.14838737,0.0619628,-0.15705353,0.11165977,0.14606035,-0.017091153,0.17315641,-0.087938674,-0.06209691,-0.005038025,0.06820852,0.12413737,-0.09314779,0.09119316,0.13201277,-0.08419084,-0.008276086,0.020059302,-0.10407347,-0.2465019,-0.0063691465,0.10415491,-0.12031864,-0.03363256,0.028732328,-0.08961677,0.1527088,0.101742625,0.005388851,0.216998,0.09330817,0.0026833026,-0.05991663,0.16809246,-0.09573824,-0.08830326,-0.07324163,0.018785814,0.09428258,0.045859616,-0.09289849,0.08669788,-0.11701671,0.0147539945,-0.055395763,-0.011404772,-0.04820074,0.116921134,0.20404214,0.09570925,-0.16371188,0.02587048,0.14663033,-0.075451545,-0.19138564,0.050685056,0.027158916,0.115944356,-0.13058348,-0.07193979,0.040565975,0.04947784,-0.04257615,-0.093182474,-0.30409658,-0.022573547,-0.10621522,0.14833188,0.08527337,0.01425691,0.07087052,0.012631038,0.09606408,0.15384899,0.12522078,0.10911358,0.07034758,0.082127534,0.17014645,-0.031036872,-0.073220074,-0.12749134,-0.066523194,-0.13190417,0.046578683,-0.0030101512,0.07640331,0.07679627,-0.06650656,-0.08759271,0.13227873,0.024211537,0.28261834,0.08149848,-0.0035666926,0.18742894,0.022704337,0.16299269,0.015046396,-0.008737796,0.14821115,0.04008524,-0.18818235,0.04269768,-0.064409,0.077503495,0.039253607,-0.01678963,-0.16068348,-0.085874684,-0.022542091,0.06598867,-0.10071938,-0.043183066,0.0105671985,0.16902295,0.06282251,-0.101093605,-0.011748229,-0.0874701,-0.075532615,0.13282923,0.18154465,-0.058703482,-0.0071361973,-0.013532096,-0.05813526,0.11111622,-0.7601649,-0.07316525,0.019492326,-0.07286211,0.075997874,0.15814404
