id,f0,f1,f2,f3,f4,f5,f6,f7,f8,f9,f10,f11,f12,f13,f14,f15,f16,f17,f18,f19,f20,f21,f22,f23,f24,f25,f26,f27,f28,f29,f30,f31,f32,f33,f34,f35,f36,f37,f38,f39,f40,f41,f42,f43,f44,f45,f46,f47,f48,f49,f50,f51,f52,f53,f54,f55,f56,f57,f58,f59,f60,f61,f62,f63,f64,f65,f66,f67,f68,f69,f70,f71,f72,f73,f74,f75,f76,f77,f78,f79,f80,f81,f82,f83,f84,f85,f86,f87,f88,f89,f90,f91,f92,f93,f94,f95,f96,f97,f98,f99,f100,f101,f102,f103,f104,f105,f106,f107,f108,f109,f110,f111,f112,f113,f114,f115,f116,f117,f118,f119,f120,f121,f122,f123,f124,f125,f126,f127,f128,f129,f130,f131,f132,f133,f134,f135,f136,f137,f138,f139,f140,f141,f142,f143,f144,f145,f146,f147,f148,f149,f150,f151,f152,f153,f154,f155,f156,f157,f158,f159,f160,f161,f162,f163,f164,f165,f166,f167,f168,f169,f170,f171,f172,f173,f174,f175,f176,f177,f178,f179,f180,f181,f182,f183,f184,f185,f186,f187,f188,f189,f190,f191,f192,f193,f194,f195,f196,f197,f198,f199,f200,f201,f202,f203,f204,f205,f206,f207,f208,f209,f210,f211,f212,f213,f214,f215,f216,f217,f218,f219,f220,f221,f222,f223,f224,f225,f226,f227,f228,f229,f230,f231,f232,f233,f234,f235,f236,f237,f238,f239,f240,f241,f242,f243,f244,f245,f246,f247,f248,f249,f250,f251,f252,f253,f254,f255,f256,f257,f258,f259,f260,f261,f262,f263,f264,f265,f266,f267,f268,f269,f270,f271,f272,f273,f274,f275,f276,f277,f278,f279,f280,f281,f282,f283,f284,f285,f286,f287,f288,f289,f290,f291,f292,f293,f294,f295,f296,f297,f298,f299,f300,f301,f302,f303,f304,f305,f306,f307,f308,f309,f310,f311,f312,f313,f314,f315,f316,f317,f318,f319,f320,f321,f322,f323,f324,f325,f326,f327,f328,f329,f330,f331,f332,f333,f334,f335,f336,f337,f338,f339,f340,f341,f342,f343,f344,f345,f346,f347,f348,f349,f350,f351,f352,f353,f354,f355,f356,f357,f358,f359,f360,f361,f362,f363,f364,f365,f366,f367,f368,f369,f370,f371,f372,f373,f374,f375,f376,f377,f378,f379,f380,f381,f382,f383,f384,f385,f386,f387,f388,f389,f390,f391,f392,f393,f394,f395,f396,f397,f398,f399,f400,f401,f402,f403,f404,f405,f406,f407,f408,f409,f410,f411,f412,f413,f414,f415,f416,f417,f418,f419,f420,f421,f422,f423,f424,f425,f426,f427,f428,f429,f430,f431,f432,f433,f434,f435,f436,f437,f438,f439,f440,f441,f442,f443,f444,f445,f446,f447,f448,f449,f450,f451,f452,f453,f454,f455,f456,f457,f458,f459,f460,f461,f462,f463,f464,f465,f466,f467,f468,f469,f470,f471,f472,f473,f474,f475,f476,f477,f478,f479,f480,f481,f482,f483,f484,f485,f486,f487,f488,f489,f490,f491,f492,f493,f494,f495,f496,f497,f498,f499,f500,f501,f502,f503,f504,f505,f506,f507,f508,f509,f510,f511,f512,f513,f514,f515,f516,f517,f518,f519,f520,f521,f522,f523,f524,f525,f526,f527,f528,f529,f530,f531,f532,f533,f534,f535,f536,f537,f538,f539,f540,f541,f542,f543,f544,f545,f546,f547,f548,f549,f550,f551,f552,f553,f554,f555,f556,f557,f558,f559,f560,f561,f562,f563,f564,f565,f566,f567,f568,f569,f570,f571,f572,f573,f574,f575,f576,f577,f578,f579,f580,f581,f582,f583,f584,f585,f586,f587,f588,f589,f590,f591,f592,f593,f594,f595,f596,f597,f598,f599,f600,f601,f602,f603,f604,f605,f606,f607,f608,f609,f610,f611,f612,f613,f614,f615,f616,f617,f618,f619,f620,f621,f622,f623,f624,f625,f626,f627,f628,f629,f630,f631,f632,f633,f634,f635,f636,f637,f638,f639,f640,f641,f642,f643,f644,f645,f646,f647,f648,f649,f650,f651,f652,f653,f654,f655,f656,f657,f658,f659,f660,f661,f662,f663,f664,f665,f666,f667,f668,f669,f670,f671,f672,f673,f674,f675,f676,f677,f678,f679,f680,f681,f682,f683,f684,f685,f686,f687,f688,f689,f690,f691,f692,f693,f694,f695,f696,f697,f698,f699,f700,f701,f702,f703,f704,f705,f706,f707,f708,f709,f710,f711,f712,f713,f714,f715,f716,f717,f718,f719,f720,f721,f722,f723,f724,f725,f726,f727,f728,f729,f730,f731,f732,f733,f734,f735,f736,f737,f738,f739,f740,f741,f742,f743,f744,f745,f746,f747,f748,f749,f750,f751,f752,f753,f754,f755,f756,f757,f758,f759,f760,f761,f762,f763,f764,f765,f766,f767,f768,f769,f770,f771,f772,f773,f774,f775,f776,f777,f778,f779,f780,f781,f782,f783,f784,f785,f786,f787,f788,f789,f790,f791,f792,f793,f794,f795,f796,f797,f798,f799,f800,f801,f802,f803,f804,f805,f806,f807,f808,f809,f810,f811,f812,f813,f814,f815,f816,f817,f818,f819,f820,f821,f822,f823,f824,f825,f826,f827,f828,f829,f830,f831,f832,f833,f834,f835,f836,f837,f838,f839,f840,f841,f842,f843,f844,f845,f846,f847,f848,f849,f850,f851,f852,f853,f854,f855,f856,f857,f858,f859,f860,f861,f862,f863,f864,f865,f866,f867,f868,f869,f870,f871,f872,f873,f874,f875,f876,f877,f878,f879,f880,f881,f882,f883,f884,f885,f886,f887,f888,f889,f890,f891,f892,f893,f894,f895,f896,f897,f898,f899,f900,f901,f902,f903,f904,f905,f906,f907,f908,f909,f910,f911,f912,f913,f914,f915,f916,f917,f918,f919,f920,f921,f922,f923,f924,f925,f926,f927,f928,f929,f930,f931,f932,f933,f934,f935,f936,f937,f938,f939,f940,f941,f942,f943,f944,f945,f946,f947,f948,f949,f950,f951,f952,f953,f954,f955,f956,f957,f958,f959,f960,f961,f962,f963,f964,f965,f966,f967,f968,f969,f970,f971,f972,f973,f974,f975,f976,f977,f978,f979,f980,f981,f982,f983,f984,f985,f986,f987,f988,f989,f990,f991,f992,f993,f994,f995,f996,f997,f998,f999,f1000,f1001,f1002,f1003,f1004,f1005,f1006,f1007,f1008,f1009,f1010,f1011,f1012,f1013,f1014,f1015,f1016,f1017,f1018,f1019,f1020,f1021,f1022,f1023,f1024,f1025,f1026,f1027,f1028,f1029,f1030,f1031,f1032,f1033,f1034,f1035,f1036,f1037,f1038,f1039,f1040,f1041,f1042,f1043,f1044,f1045,f1046,f1047,f1048,f1049,f1050,f1051,f1052,f1053,f1054,f1055,f1056,f1057,f1058,f1059,f1060,f1061,f1062,f1063,f1064,f1065,f1066,f1067,f1068,f1069,f1070,f1071,f1072,f1073,f1074,f1075,f1076,f1077,f1078,f1079,f1080,f1081,f1082,f1083,f1084,f1085,f1086,f1087,f1088,f1089,f1090,f1091,f1092,f1093,f1094,f1095,f1096,f1097,f1098,f1099,f1100,f1101,f1102,f1103,f1104,f1105,f1106,f1107,f1108,f1109,f1110,f1111,f1112,f1113,f1114,f1115,f1116,f1117,f1118,f1119,f1120,f1121,f1122,f1123,f1124,f1125,f1126,f1127,f1128,f1129,f1130,f1131,f1132,f1133,f1134,f1135,f1136,f1137,f1138,f1139,f1140,f1141,f1142,f1143,f1144,f1145,f1146,f1147,f1148,f1149,f1150,f1151,f1152,f1153,f1154,f1155,f1156,f1157,f1158,f1159,f1160,f1161,f1162,f1163,f1164,f1165,f1166,f1167,f1168,f1169,f1170,f1171,f1172,f1173,f1174,f1175,f1176,f1177,f1178,f1179,f1180,f1181,f1182,f1183,f1184,f1185,f1186,f1187,f1188,f1189,f1190,f1191,f1192,f1193,f1194,f1195,f1196,f1197,f1198,f1199,f1200,f1201,f1202,f1203,f1204,f1205,f1206,f1207,f1208,f1209,f1210,f1211,f1212,f1213,f1214,f1215,f1216,f1217,f1218,f1219,f1220,f1221,f1222,f1223,f1224,f1225,f1226,f1227,f1228,f1229,f1230,f1231,f1232,f1233,f1234,f1235,f1236,f1237,f1238,f1239,f1240,f1241,f1242,f1243,f1244,f1245,f1246,f1247,f1248,f1249,f1250,f1251,f1252,f1253,f1254,f1255,f1256,f1257,f1258,f1259,f1260,f1261,f1262,f1263,f1264,f1265,f1266,f1267,f1268,f1269,f1270,f1271,f1272,f1273,f1274,f1275,f1276,f1277,f1278,f1279
O43451,-1.8026221275885739,-1.8924599035076817,-1.4376010164987294,-0.009286981883448422,-1.946296701480938,0.9231044424033521,-0.0173486577615649,2.1709569976696494,0.3093663329119888,0.30065691823494783,1.4692556060263526,-2.4587096833964464,1.3497481169239718,1.3687774444839704,-0.034283227812374244,-0.30785085495153225,0.23337839252718287,-0.6289323315355286,0.17982657962524082,-0.3551851499942587,-0.4034987790396802,-0.0269245510432306,-1.3215418409678903,-0.20750507220070805,-0.7382978407808503,0.32134118019067565,0.23245264041045763,-0.007030440440495065,-0.20347077825349,-0.25614573738670077,0.4491740854897584,-1.4853894699943317,0.4472382145472848,-0.6274134143377669,-1.1700955982860617,0.24872693180168381,-0.1294804438160237,2.0703747445678227,-0.23483196577493656,-1.091229104243396,0.36759472696173146,0.25775661329489447,0.7265414789712034,0.8933587599161031,-1.563096814588302,0.0026129590203300967,1.0320432397603805,1.059175728693008,-1.3593438551462174,-1.5614979306998384,-0.2737893015539952,1.7616549757896782,-0.6883730393802873,0.3204099110826851,0.8231110055698192,-0.050761894923431174,-0.8091132621164855,-1.5872171383275426,0.6258049255264829,1.2241843750370824,0.5180602577894055,0.2281890780343,-0.6548493776941074,-1.0015127958775514,-0.3878543300265561,1.3130703517683582,0.48971403091531235,-0.0402445265544944,0.07934016817478817,-0.15640506323492873,-0.4482795380620901,-0.19249995663368247,2.432332374158485,-0.11791813938458355,1.6630168786871469,-0.4465521951754364,0.6393858984562545,0.4679928640436612,-0.3739220459968322,0.13223612350329503,1.2347166811732397,-0.16687905997357258,0.8053090396752769,-0.053379907350555714,-1.7263982015560053,0.13467004668051336,-0.36989469647039,-0.455192892365168,-1.5263884629601456,-0.21424286888396277,0.6485219405914363,-0.18594932669945993,0.3323586336406931,1.9920338460112181,-0.8810818160927725,1.7692910349865802,-0.847263472483027,1.4061260293470332,1.2673180297873075,0.16563623010462628,-1.0094828418978326,-0.39225564369723975,-1.408735603216247,0.12319473192987253,0.08228886255092455,-0.8357681061048825,-0.8045515956325547,1.4024912322136012,-0.34937528120303063,-0.12991563156103472,0.07406561414344968,0.19568403675601947,-1.668946881710279,1.4442268328559036,-0.912539739748848,-0.4341654520224656,-0.38688997613788567,1.5969026753462485,-1.8429157484441243,-0.07446122785952898,0.11147793708945634,1.4017972604462274,0.2100697226386388,0.06700559584460886,-2.1260756314438947,-0.18454949694350872,2.68493931629845,0.7141195833556606,0.9124175459879602,0.42463497237040926,1.8673467825393022,0.9963056700546598,-0.390445922195753,0.19463226091581057,-0.13660306826387797,1.6909595915205342,0.3536471852442544,-0.0512234628696685,0.15600161003573457,1.2974532000374979,1.8748522619796595,-0.41876124224679795,1.1019660407887162,2.0011126763982987,0.7648295132251092,-1.7121348938727765,2.2048374391686747,-0.5287578636704167,-0.13197922709698173,1.8075924643842434,1.3889028120554523,0.2879550906133441,-0.44472484039415383,0.645720003878701,-0.7065818955194928,0.024308756725231296,0.5680511753464134,-0.667946470931632,-0.6331626145801986,1.3328984049229335,-0.5451790442274925,0.9798268753547268,-0.08295607816829867,-1.0430138490910648,0.49042425067916334,1.1433269722303683,-0.8303338292787869,-0.04144820361511223,1.4152403650172305,0.15177152757253354,0.17646575443557452,0.4296370205593673,0.12129124833616127,-0.7263729887639471,0.9689374498198973,0.15080837485622062,-0.9019342204443306,0.8593597420710544,-0.4306456268037306,-0.3998450197833999,-0.6118482080322752,-0.1311556812326443,1.5935969416570712,-0.13837903525072673,-1.2785050378273166,1.4182866190043755,-0.5953688271852835,0.4898798059677659,0.5050830786404975,0.501306854908795,0.01232945657779101,-0.6476698185666171,-2.005833340148265,0.18289933699102937,-1.1036962846674319,0.24309050887873476,0.26190220868123865,0.4747745180787259,0.8425204243148828,0.7493787347979548,-2.109784866535561,0.573028797457207,0.33423061375650837,0.47526289953485684,1.5270126415788645,1.9755287873686997,-1.377402430195058,1.443023480589844,-1.1027060240642057,-0.6516384503139429,-0.7562025262300567,0.5566064418431861,-0.07081727904777961,0.039911013109537,0.3958378482320846,-0.683496650278297,-0.20789990717106177,0.4336201065353294,-1.4334469097861373,-1.1672709770653231,-0.23105019183104283,-1.2932928316658314,-0.6337185345716717,0.21059211413110743,0.6837027552580812,1.266626815469155,0.2021101925608566,-0.0921268776373317,-0.589716148982403,0.31073559654796307,0.4219166556630305,0.10263652298861248,0.8590629316810406,-0.2989997105012602,0.30662722987308483,-0.5066362466413437,1.6137188261469642,-0.1677235942348274,-0.8345790163798255,-0.6750924330514259,0.34211088567654074,0.9954590263850692,-0.5249368277963004,0.9831161221008572,-0.016118288476145288,1.9746971702673595,0.5230389630116674,1.2152406399891802,0.2214500643014783,1.644255908403801,-1.1414479994639373,-0.2798815133036176,1.3703403984974625,-0.6210642946865376,-1.8542347028479884,-0.44984273036529737,2.961762711539455,-0.6489787173016379,0.30827137998939314,1.0229147252944342,-0.8785818501314645,0.151309586697821,-1.5602748404843898,-0.25970669852770817,-1.4002301213680792,1.2263842246970005,-0.34695676817662247,0.05577989756798183,-2.710943412474495,-1.9353023705439834,0.33061351286464785,0.1796711182959499,1.1009615557529282,-0.009485138147835116,0.3302776006775167,1.2036209268286824,-0.599718250188409,-0.10351265241254382,-0.6548250556782594,-0.787328627480876,1.0978096532890613,-0.5768983121156819,-0.5907180593003596,-0.0176976306911382,1.3668862519237097,-0.01522375135132221,0.8748118219605379,2.320652716934124,-0.3924348271956632,-1.46724903967522,-1.236791077520303,-2.6401773998608933,-0.6520847282625731,-0.21620085749605505,0.22470591945788934,0.38230975408297097,-1.370391877358932,-2.0306452774032264,-0.124569152278575,-0.15541354041324404,-0.6268327346790445,1.0169501334205495,0.6302003518205204,0.7797378584131952,0.1219012447684076,-1.277377079067759,-0.7596604887878572,0.9817387755698666,0.27095104061520264,0.4766573053431288,1.3300360293884377,0.7378721724422751,-0.5187214560752468,-1.0235005577156642,-0.05518863561258536,-2.1049697692876825,1.5359485002042723,0.6459410624481418,-1.221351090608193,1.8068986852860283,-0.30625510269654427,-0.10495314505808506,0.06931772275928329,-0.8481299102193466,-0.6519892694711447,-0.38577380847551773,-1.9890099600920996,1.085688436726246,0.8404363038492857,-1.0525027587266669,-0.8832677935757466,-0.3144182817999239,-0.010097830976162679,2.0091857438858756,0.19115900097790928,0.5842738564226937,0.716171378696396,-0.19159153743839788,0.59959363636826,-0.3313208853239233,-0.7668222951448084,-0.8500878546382465,-0.5778418038555201,-0.0006859952343647775,0.5747639122367814,-0.9261697746735523,3.233257913362043,-0.23176494129942946,-0.42574181566407293,0.10768328820569638,0.06933175043403392,-1.9508461968772433,1.4269282849606006,-0.8668613302618635,-1.6007322810322346,2.089428460243258,0.027684134304917285,2.15334076465555,0.044507573175750346,-1.1770486233231185,0.056271573747004464,-0.5436450368253813,-0.7345469474885308,0.572694662642151,0.4447666823385616,0.0685607441847868,0.5193619510343221,-0.589333856802198,-0.3655370506606716,1.1611078412820783,1.752327122581054,-0.6119168229038604,1.3695255629560996,-0.05859621366214349,-0.1372431111629416,0.6253317829350987,0.09606156818689528,-0.7452799214588562,-1.0454032493468801,-0.3095912276268843,0.41733736503769453,-0.14291183134164584,0.8021586899723981,1.046651366784251,-0.5295623817274784,-1.735910364282654,-1.2377262655511059,1.0483418889368534,2.388510147972555,1.0808753332168264,1.0431765767575472,-1.6639840590640138,-0.505793796830939,0.20760219511766892,0.9691692957476676,-0.24403256589617792,-0.05517873845704168,1.1527151810722969,1.1329161463527964,-1.4950169917675415,0.3754241994124165,0.08416734196701563,-0.5339404988378247,0.45922974276657835,-0.644525178198551,0.7267182263554195,-1.6454071694427288,1.3902907710152086,-0.7465647399391686,0.43264906679326703,-0.9300843254291455,1.1683318627135915,-0.5823058604202874,1.4347486870525048,0.5565970856359498,0.012044667625198499,-2.0584514662866593,-0.9897571728104813,0.46673949862774494,-0.5753840879278808,1.1274688055563618,-0.8099909355095863,0.42971607712716237,-0.780530132380648,1.2612161270714295,1.2844950363646301,0.534469472445583,-0.7897519499649557,0.3834091984448551,0.9623106810058409,0.7573829943603007,0.8043169673714976,0.6826671095816977,0.7314122438461684,-0.19362798666630193,-0.3099741038488531,0.23448499978707493,-1.409451342333791,0.06092789005072834,-1.294441039046323,-0.8197393294803226,-1.1559390851177087,0.24469113260904313,-1.8657760545621123,1.2282076046208574,-0.6222626638831164,0.8490202752556842,-0.3856481518091393,0.2506894870037841,0.12727439052425357,-1.556139083694614,-1.4720544505307365,-0.43622462130334083,-2.5865890214400764,-1.389184508200527,0.8234138994138808,-1.9347041719967513,-0.8820287359291002,-0.18684493464888927,-0.7132447565395867,0.6209047879127917,1.5090282075981118,0.5789966987404063,-0.43694978890821895,-0.637315875576434,-0.8718574205990275,0.14733147051111795,-1.1268677612911264,-1.394169720487333,1.4085712715241003,-0.15679292948938334,-0.967632142473506,1.032598330093373,0.8788217447304795,0.27313531211382475,0.31279589591569684,-0.2610705643368621,-2.3801286975073452,0.9379355040966904,0.5955447197751189,1.999315246782534,0.3764448290619807,1.5612995933815559,-1.783374196848465,-1.4885379079995342,-1.8190105389414115,-1.0176356342122672,0.17525626234888028,1.7768068440388338,-0.1789765905815959,0.12622420346609764,1.4398702035972915,2.3598671668584275,-0.3019083762846243,1.267461852790986,0.12132488319278312,0.5503689202413604,-0.28266652497170597,2.6474030657742977,0.1635029845227931,-0.4006537691660151,0.6760101084238352,0.7844130087037843,-0.05132393585465441,0.3101528433270998,0.650171174781605,0.20325423152910246,-2.970588173625972,-0.38856302175281865,-0.9024089138650041,0.9348948836939234,2.0654519789450805,0.026705129227304107,-0.3123332366194177,-0.3976004166049892,0.26350771797002753,1.1157900698441605,0.9805107855074089,0.5508272328247612,-0.10147024976357895,0.7658502860803492,0.4441620263315774,0.7131550783553019,-1.1099389850434436,1.0673934823583964,-1.1919323874836592,-0.2809653972282629,1.0239474504290524,-0.439906998837656,-1.2880173760257252,0.48722915170832287,-1.1210452021889308,0.6551270059969427,-1.7317220257055557,-0.04557771158718321,-1.4973407007911834,-0.1123357417185969,-1.2286412878808297,1.943510287780485,-0.4730956773924003,-0.6010257111162143,0.17736448482237693,-0.8210069724876669,0.019360785694136087,1.2102190315434544,-1.285649787131724,-1.5572959147324192,-0.1157465595230024,0.08360441042985418,0.510086933871882,0.2834616031222556,-0.9726858458890278,-1.4868665786414161,-0.2805908692583127,-0.12030526972165262,-0.7082157215105441,2.289970338230066,-0.27231436590984653,1.3784719748975225,1.182089966717177,-0.9926361892399393,1.1868974056834833,-0.43213312545808974,0.2954014071276112,0.8858041912823844,-0.9047752672947363,0.31849710513549095,-1.7213678562326773,1.32140509386375,-1.6785998929498451,-0.30659807658579274,0.08771690354234349,-0.26259947612642875,1.506764048784082,-0.5607816759829917,-0.44742404423795945,-0.611784012622291,-1.220940110604078,-0.6031581435431603,1.299242586053609,1.7888789000471406,0.06849239377721775,2.6741526158014395,-0.32375188670850036,-1.1536312403272624,-0.823276560876435,0.7890692693078665,0.5641145659018102,0.17991178497503468,1.00035857515893,0.41420669429600937,0.5141051099327282,0.023985444282189853,0.826828366676581,0.40541612415737277,-0.7975703422329452,0.30463658323726983,-0.09686746710848573,-1.4743173918458286,-1.5277060315245008,-0.9191124863873216,0.2097896530395083,2.291971770020708,-1.5954273303767208,0.012403750581202591,0.34770842800380586,0.5729891620262395,-0.08136296327859327,1.4015603538216368,0.48332069606531763,0.07869109570682851,0.717452961955223,-0.1916311880275451,-1.2640404128483722,-1.0843140726808365,-1.3572881472468676,-2.803455165620009,0.3089743722944447,2.4477134304617936,0.29784325135317713,-1.0833485618471472,1.3588634757175477,-0.708929284918703,0.03363088033241942,1.16773706663464,0.17386042913790611,1.7038116238823935,1.3893046183530366,-0.038035939097570415,0.5779147822735579,-1.9320807375128477,0.3744754186361166,0.7724687292052222,-0.46900823648342366,1.2824641775725591,-1.4807896691327451,1.029091034451683,-0.6811410543302825,0.5167821958266824,0.4313276728805266,0.5598485865724759,-0.8400103025533088,0.760917733554185,-1.8146964082595372,-0.5366280607986509,-0.6753878894442156,1.9044797139195035,0.07300441816309332,0.43399491653308814,0.9243562702649675,-0.9153581817013127,0.7485041688544113,-1.8933922987787764,0.3803739032407483,-0.424909173795434,-0.4484907686875773,0.5242738837537924,0.32645117677685576,-1.042678940040752,-0.3337902906687651,0.8473902218635423,0.04332446219158485,0.7694501485932949,1.2162137591913178,2.0361239208287603,1.9941573642607926,-0.26677021429886416,-0.050742743174158854,-0.7376284371386245,-1.4332733784446468,-0.044742395230728614,-0.14865845987729787,2.0457369893211186,-0.8540866893187551,0.4161783017480963,0.3300746624488698,0.9508016810124389,0.11559470195794289,-1.215913744900797,0.016425301523603084,0.1126290981899692,-0.11302464048621937,2.1067589082219724,0.31462497930469885,-1.4403129510470205,0.3988937699287353,-3.3564450667646955,-0.4862341842949398,0.7647142854096856,1.3811646470779093,1.5280298359947078,0.11422079509435537,1.5049596001506191,-0.5238355944660135,-2.9918165558926084,0.6728381075606873,-0.26216635580545095,-1.1015404972712175,1.5546230821849982,0.19748266387939567,1.6744737038090565,0.45048131458894103,-0.9701036246158431,0.6468383561188794,-1.6572799146029966,1.455469502674516,0.06072306817601545,0.23548260609131386,-0.19066626707142054,-0.1310620508516194,0.6414052776932725,0.006212820903251688,0.27413719091322636,-1.0491905504038666,-0.6046943495818105,0.14278262176343776,-3.084265357882588,1.1811492703320563,-0.287804847186805,0.44277132355665355,-0.3536943826967623,-1.2679752721670363,1.5867120627934637,-0.12821589683401255,1.1056782344560636,0.11859955525295901,-0.5165012561958877,0.7305942141522529,-1.2922260440269704,1.7341776919064746,-0.8925014334401716,-0.3347731164244059,0.7517401922450306,1.5503326514243334,-0.32968359675267805,-0.7335129348269465,0.5701986732971621,0.6134707899208646,-0.7789504802690772,0.5126029485904215,-0.8493573073935089,-0.5175466706575242,1.0378342758670627,2.087116678227565,0.6763057183610977,0.01570702901177469,0.8101616539145281,1.2701064676682967,0.8804925467330793,-1.371783495958965,1.6706958991341658,-0.19840433602947968,-1.2217525263334301,-0.8875642893981767,-0.06784880366498465,-0.708860563768816,0.2190880353876304,0.8695329025337332,2.314627364232435,-1.6515458744330722,-0.22087967042850473,0.9406941546764743,-1.8582238164101084,0.3834927735016601,-2.750186945608896,1.1846614961709085,-0.945070137754231,0.06495764971420305,-1.6593878768513808,0.3341621719668964,-1.9147947970955879,0.9211586693150843,-1.170676616570447,0.7390211130495439,-1.0509344963698757,0.05975691881620463,0.8231855516233396,1.1199344505410136,0.46110624396765987,0.24896324315320237,0.2534907081099333,-1.5101123577217357,0.8786269697540372,-0.31187972977006645,0.3696403920034739,0.44933359661828715,0.7328627211035815,-0.7496812203338797,1.8500722926172002,1.3234175124212089,-1.0222945786971822,1.5624209258054857,0.644962761278062,-0.5316561259009539,0.6865528991654786,0.954726225415453,0.3214295555364299,0.5355759690456109,-1.1629897375753182,-0.39884219647078123,-0.4711630509615052,-1.3036293971381232,0.1803898238578085,0.07545328980419558,1.3255503861395825,0.05247805567368723,1.3498801496477142,0.24171138796539618,0.0028188254567936047,1.6057922085922833,-1.8321767167151461,-1.7459511853403304,0.5575620607059811,-0.16507174246567755,0.7069257291780665,-0.2052911876884003,-0.6394474207929496,0.2875570448428595,0.5781860167141915,-0.5622835103714836,-0.15319805061026973,1.2389320713186271,-0.28346825711212587,0.6517448923955168,-0.8017073008582426,-0.5968958183148804,0.3667777999123915,-1.362207555877256,0.48164367600901564,0.7385465108789075,-0.4940653043903341,-0.29846598002334573,0.43649142189707085,-0.39725232513923947,-0.3480401281181572,0.761595669966113,0.22617543446641875,-0.3267745766013047,-0.4024577911884941,0.021788039274584885,-1.717010153056799,0.6419372830420548,0.4725860209079713,-0.6819596869543338,0.3108904521625649,1.085656959821468,0.11383278564748131,-1.3535104409774912,-1.6116698828790947,1.6995582125486344,0.4077161372644091,-0.1819110054307637,1.2796644544991316,1.7470317924963874,0.5794771765571476,0.1342467373486447,-1.3207635969631037,-0.6572143047374399,-1.1435915670844257,0.43528606135464765,-0.24096390435649143,0.4482054056743801,1.534866870873121,0.008630855986092204,-0.5425175706822863,0.39844016784589675,0.0212519236250455,-0.44353385339277995,1.177256094559513,-0.7657035951909826,-0.3809886282257017,-2.6185543165744316,-0.25719229526684817,-1.5745561354653517,-1.2221218887811724,-0.5773561020332176,0.25929503511277047,0.7137888675585227,-1.7484913724187627,-1.9800201602556404,-0.08681783580611724,-0.9527007349996203,0.0036269593555470782,-1.6186391797895334,-0.7281512357664363,0.13583238417024263,-1.6644312163575268,-0.9713463690319247,0.7253242681151048,-0.032800640669861,-0.31052298237761045,-0.5293223372819145,-1.1012077626045496,-2.827619931408995,0.8112100008164344,-0.1161524709011345,-0.33049009370496624,0.4731505181148137,1.0349389035389152,0.43095074468874367,-1.5392605789273428,0.042436143652243,-1.316691328333139,-1.3527389718827407,0.11923170554912106,-1.2137837121170882,-0.5726203376600246,0.6287465880000317,-1.53329050416662,0.2870865004416052,0.2877301094054236,1.1886580271065672,1.3559886392134608,-0.47725093474973607,-0.1107012349040992,-0.11397356485005891,-0.8461930673497327,-0.5479757496310369,0.11557803900720741,-1.0796559199457356,-0.6444893189719145,1.6478713795049988,-0.8126524574885442,0.27908750450415043,-0.07002426396473085,0.18873756509472125,-0.2788992335327115,1.6425984258612925,-0.5494544473905056,0.15058341971451944,0.1209186080760432,-1.7052849100048657,-0.04422232013956601,-0.7963896763575503,0.5789685769549962,-0.13020536188296647,0.9811976160597592,-0.2076998702640042,0.7235908865732776,0.29914582320396826,-0.1199664504910864,0.5665667377612185,0.6751572354608425,0.32123720529748384,-0.7499091474999486,0.2810407459313667,-0.9079489975507619,1.2403639408758516,-0.6579843616585248,0.38279334335787624,-0.8930033129416388,0.9125056534910414,-0.8716316364361857,-0.0953066316208848,-0.526451087965678,-0.28870931995328825,-0.46228188383187613,-0.8603294420663715,0.27591654465503096,-0.7194210680426987,-0.6220358195658282,0.3609749671559668,-0.9986881385325803,0.5088250875741175,-0.6688346235085318,-0.3797310775752518,0.16863267495249776,0.7508030742422903,-0.6614070918070418,0.37560238711891675,-0.22895505534837848,-0.23051312175277458,0.48164806362802,-0.27886778411813096,-0.12818599682186715,-0.9347103609560061,-0.8296965295350686,1.318303466100548,0.5984403597753228,-0.057324995158007076,1.2871359848140869,-1.6363449163735346,0.02907647164524651,-0.7678966815777128,-2.083705782085136,2.0403284057346616,-0.5728702840055457,-0.3590794028834983,0.7995000958376642,0.7633562455976772,0.849141311465118,-0.7421787801897655,1.1776316714422677,-0.1884713544110497,-2.3508833344373326,-0.5028220175978592,-2.160627566963375,2.3612812022026612,-1.0079061737261938,1.1793890850533788,-2.297932774647927,-2.4217536617093685,-0.25829662537735865,0.13050806433240722,0.3826289649997455,-0.3274541432177885,0.9384173091524868,-0.5150544425910516,1.7547052670373449,0.5874279457863033,0.9473345442268252,-0.05932572624745877,-0.019583479629920506,1.6536761930057584,-1.2871550536864655,0.13580699309298333,-0.7331874587137266,-0.770806062131415,-1.9838514452342575,0.3514751050051201,-0.6733934644787711,1.646456499262992,-1.1124253820539944,-1.3293193032290043,-1.0634622175154334,0.3463629908333467,1.321197073615935,0.0793806081286171,-0.3262977512269026,-0.9292105701179901,-0.5121098839777694,0.7811649642276491,-0.0005365106432770043,-0.01989666859437247,2.512443692564917,-0.6295362461353617,-0.663667732470153,0.13621836369889834,-0.39624535310458964,0.015917615154042105,-0.769276708112765,0.20203354530763554,-0.6799183737407885,0.5435234540411842,-0.6901015258183374,-2.3065613921532715,0.26255829321282126,0.18926365300751996,0.36333096413044413,1.515419878951082,0.5551493647039656,1.2227586430917823,0.6605001696041067,0.6790423178153051,1.0598374142295746,1.1411067737649385,1.713935686078306,-0.7298622059858256,0.7278793492472918,1.0229185813417767,-0.5242503340124253,-0.7602739065405543,2.097042522207757,1.0015264537983928,-0.042645270029295086,-1.128765249476628,-0.6573194418127324,0.27535071699608343,-1.3944384445397848,0.6231359514583669,0.8005915687468169,-0.2155333855809871,-0.469827813573711,0.954696288185315,-0.3094587417231523,1.1139376365730482,-1.6964945626838253,-1.278683621631617,-0.6837901003932422,0.01732741692085456,0.8205980239745347,0.935220167066632,-0.8901971229176183,0.3843607646487854,1.3624892069844345,-1.231969852387801,-1.8194638721823966,0.18510019021214794,0.21265531334347246,1.2402280285420235,1.6888330263072833,0.24576327824655417,-0.34633321481570417,-0.007547684456481405,-0.8023626086784322,0.7836307242158631,0.47996404379513924,-0.7815590668382998,1.0462247694161357,1.050675437566461,1.2669508304345654,-0.7453462279007294,-0.2779081499713674,0.9070479121429401,-0.1078719164010086,-0.8705258716566339,-0.8946922804392416,-1.3168556953932558,1.4572882353425576,1.6135924102391543,0.5659465378287862,0.14023696805988772,-0.45656846884058516,0.8927448308429868,-0.04877945523018157,0.48325100477127203,0.02320964446643151,0.7111574845005391,-0.8366633606093546,1.120540576507934,0.39966431276833025,1.5026774058875192,0.2174371740183016,0.2637823754079134,-0.860107881978017,-1.0869323196531222,1.1096071215803796,-0.8705261169998814,-1.3892078672675159,1.486082914225445,1.0856410332094018,-1.0508142133479943,1.7012301898606779,0.24354918916857302,0.01646327731651378,0.27342667581752084,0.08238264849759337,1.2850610937232037,0.48975479528867144,-0.3536689743690652,1.4867995270132401,1.2909927659167886,-1.5015855187599851,-0.3271819089561269,1.283362685772185,-0.05252192586361391,1.7898720147219875,-0.8192701143025081,0.6763204419724107,0.8426970760856808,0.4320085161229931,0.11484891690577419,-1.8406017849722545,1.1112268271932124,0.3417790492228107,0.6902037426502106,1.267398348763444,2.3025311833367494,0.9671327169210574,1.4390891120137281,0.040963854165001146,-0.016789418363481155,0.1495143135666371,-0.31086474989497875,-1.1767246916799328,-0.9455516218685436,-0.6353945126884941,-1.0235089212296207,0.8819258932235331,1.052425893510771,0.19935669729363567,1.964308125746886,-0.17558189300010701,1.1283517785001507,-0.7105032052326423,-0.7931170642386907,-0.5809328905862468,-1.2061125154428518,-0.3981806748111723,0.5686961368423866,1.7511888096940649,0.1265604039285408,-0.14407175376062287,-0.4484237034632817,0.582606882105702,-1.3997644512218947,0.1288003553462684,0.8963664186895531,-1.6369923464058234,0.5147055059731681,1.7180402367297372,1.6408627471276838,-0.4975947829291975,0.4133968933865572,-0.2695738561068419,-2.1350484973283184,1.050806514507346,-0.9662212889511173,0.5263164066490196,0.9984254872405842,0.6267601895765718,-0.22192217789498334,0.5551569566672453,1.001208363364191,-1.2536964962444461,0.7756082619377185,-0.29904942466352413,-1.280167071653981,1.1910157978721558,-1.9088987831167483,-0.9782323324088775,0.10575244016101261,1.1569011379320422,-2.2897642090679664,-1.7310613060638578,0.2521266880964284,0.15903172028746002,1.2136362589573222,0.1490154528733489,-0.35334763456979373,0.9901556059665593,-0.20551053185130277,0.4978231606494583,1.8602912470135482,-0.8654517990987384,-0.3518209336897388,0.3287818822051592,-0.738381499763944,-0.20303606543165434,-0.5290907625706941,-1.9952364443368773,1.1847982310829979,0.9925057247243858,0.9686604957837642,1.163587268084946,1.100675973943522,1.6061277526212536,0.347166770756199,1.7427496492172798,0.7288934913904412,1.001237110346832,-0.9292316725629172,-0.6051662954146086,-1.0211172409450917,-0.40069754548486025,-0.3309846109231153,0.39344489900268076,-0.2656612751181841,-0.5842568120544519,-0.6143444903554008,-0.13601757237913334,0.3817608385878159,-0.26617693539706394,0.2967475677441875,0.2306229019762808,-0.7767582495394997,-0.8826771159984972,1.1477118093948508,-0.9136743299494153,0.760847739281257,0.5245053211205745,1.4440563771105221,-1.831646566862922,-0.6987690752165855,0.8866561911618939,-0.8058902315979046,-0.6160300517936048,-0.08292330288706162,0.6295327971394231,1.736372074963584,0.24148555336300323,-0.515670221504716,-1.1350536470262569,0.2626481562143235,1.3129554500034468,-0.3242311834829419,0.22311947582070446,-0.7385518204120929,0.31011747070595397,-0.1179740724579583
O60706,0.29491918320976607,-0.23434182098907885,-0.5150536809608297,0.7044775335336654,0.2884825927039409,-0.1683093667081439,1.723503143788176,-1.859747597190265,0.11400552949030837,1.0111305990972022,0.6570966258413697,-1.379040346913696,0.6692561187083665,1.3230861517665498,-1.71104714136174,1.4780654529404518,0.745900617906332,-0.37416933422667165,-0.011190458606370468,1.823659173266629,-1.2011590504668535,-0.3703976466854526,-0.2790712306203258,-0.2621119919605023,0.760493480354591,0.879669264303045,-0.08301381899077832,-0.9305904029942915,2.2571910341715795,0.6196878087676101,-0.32103616425240034,0.4212260929508831,0.3747010962177303,0.4354934115868149,0.2466175956299967,-0.9926675901899349,-0.8419436269664106,0.8029441402847777,0.9322293911684951,0.3401845387123116,-0.8047661834146504,0.6388191851409281,-0.6938182090554338,-0.31252659023566787,0.23710111093436934,0.4985510098267531,0.016395560542860555,0.880110797003244,0.9991450368972872,0.18259730720961798,1.9905834820041854,0.7146976294271029,2.0992668073206175,-1.1201469526301224,0.7443514151615416,-0.1635391107052558,0.051545506202703685,1.5920411292930405,0.9877534806224058,0.9974680855565511,-1.921763454922331,-1.0204684296834945,0.2960077731668994,-0.25081150624679865,-0.03131106998508964,0.009399207076502011,-0.781722703148138,-0.6926761557606443,-1.0502717233592407,-0.5952615682314794,0.05694504632728621,0.5822686087985619,0.27268056974281507,0.295514950829391,-1.9173347566326564,1.1977959358877166,0.12285268748439077,1.3552075772726047,1.2522638558619723,0.5282020505257826,0.662937641985558,0.5565260579942652,0.5094313604402704,1.0414456803897076,-0.7472200959961098,-1.6139265635526263,-0.004215195281226135,0.3688914331315061,-0.4128518344813662,-0.35930758504645216,0.2980376901104263,0.5745353976256968,-0.44569873122227593,0.675411397864863,-1.5819454898167828,-0.4045998188413892,0.650047649791875,-1.6236887147893493,-0.8151711053325412,-0.7843035447710374,0.5742854496189915,1.6281280667207139,0.731419992251632,-1.7957940631790326,-0.1436203584871488,-0.2513911360121354,1.5653089086947418,-0.08524028106696929,-1.0670107097686738,-0.386249626617649,-1.2177629980344058,-0.5550894680495538,-0.2570945390964172,0.38786022433410444,-0.643903218418477,0.9993880988433778,-1.0275231940454734,-2.2045214065482783,-0.07341195142078244,1.4109328580241656,-0.23858296566854176,1.4913605545707804,-0.5196163301089595,-1.5574527703493604,1.48288200526437,2.1995724383448625,-0.024154589645525918,-0.762154456202118,-0.8404231660936452,-0.33487095120769367,1.6023670343560785,1.527355191502104,2.159095629038468,-1.1737086055621673,-0.7024608280656639,0.25096954959802253,-0.6783215054127937,0.4338679108462657,-0.45683686092932313,0.21109934597047822,0.37567714948563746,-1.1853750965541798,-1.4422002953433843,0.2021144492684162,0.36897580333456037,-2.0194183145103652,0.38605222493360775,-0.5693135430258385,-1.6283400579615082,-1.4978562177607908,0.2100716265266102,1.261499630131166,0.40765519198820105,0.10816678210274926,0.4329502339099228,0.2678650691000803,-2.6935899442624858,-0.9422482161916472,1.228069855954933,-1.0695886628790618,-0.3147342536923187,-0.6757525997921776,1.5534213270839188,1.7691427925056984,-1.257498678466944,-0.1605527003848678,1.021613755659936,-0.8151994774470755,-0.5575463700880927,0.367104660134189,-0.31054160940841274,1.193402019436101,0.8314963733505129,0.15420590983596577,0.3319314994017778,-0.8414256009111469,0.3334444136666746,-0.8880483592417253,0.37025960954318,0.48063874751643176,-1.675280722195336,1.4983775588464563,-0.2768956059398323,1.914967896261635,-3.718720442368333,0.914289606473865,-0.18825650220016152,-0.24686884542912896,2.233257787033682,-0.7806317550032129,0.6341699312573201,-0.6830750350857352,0.08602751830673012,0.23522594680748313,-1.0018691704838498,0.24821968300867783,0.7508671041298054,-0.6574666527770163,0.016416975417308598,-1.9138197325241375,1.5782059468747036,0.4271151600652296,-0.34312100509579896,0.9569314114604731,-1.1837373298645213,-0.7853218874333885,0.8139989482632556,0.5269007543105626,0.04479251009782084,-0.032773228429132925,1.6351762533279888,0.44136195456985267,-0.20009851383996108,0.4426562007934324,0.9764800397719813,0.3327731054285837,0.13897542568370352,0.23780455985851387,2.8190103168312866,1.7949688101142103,1.3154826596813374,0.01734365421169247,0.6903908193819217,-1.8705417574518262,0.8697263643399304,-1.0145707473789083,-0.048052105793139045,-0.314070940398673,-0.6349596583152877,-0.35884880074439796,-0.6841696831696031,-0.3350663271266257,-0.42053735453097413,1.2015724842735487,-1.4611149995345125,-0.9822732888768827,0.13727158648417953,0.07395449056078389,0.5474492636195252,-0.9494052537716514,0.22047107567181376,0.7915955056032452,0.5579566810677211,0.25748091777197185,0.691614392870765,-0.1393362882238757,1.2064669178494503,-0.10332269469367733,0.5899767842549681,-1.0740641979189127,-0.4112383765376806,0.20065375467744623,0.30812882467050356,-0.4555293701775545,0.13269933285436725,-0.6473176129149493,-0.6983069144565225,0.2276476880710065,0.18518937287478793,0.4399580310695047,0.9312049504129076,1.6936184741889284,0.3296956109249748,0.14217701702866536,-0.25498332157366593,-0.6861452639693917,0.21618382245251902,-0.06662252005199508,-0.47172844862457225,0.5705051654917356,-1.6514995849159515,0.2356472320159785,0.4638132354285982,-0.4119367929067669,0.1865578719400752,-0.47419949787718385,-1.2988592090554727,1.9848497899925444,-0.2749216104073365,0.46549819572329715,0.3904145395640113,-0.46623178394081727,-0.9256025083398262,1.478261316807783,0.4509993677822946,-0.9170092695671967,1.4513759701507343,-2.469334810686063,-0.7025458364825726,-0.5216143226744617,1.2927430012518797,0.764488719398858,-0.12868375031439128,-1.0724122423392182,-0.15095904556368964,-0.4783405362655905,-2.4170941344373165,3.5854858954568574,-0.061482671207697515,0.9574411110195538,0.5118350573332019,-0.07021492591504476,0.811465892923961,-1.2851225420314258,-0.672912187319373,1.0231643877298535,-0.04844579227300272,3.180053083329589,-0.04516869488349123,1.2882258217101432,0.6431763169041033,-0.05208296686227525,-0.1113228011716185,-0.639579683632593,0.08044209397704707,1.0499591062253308,-0.9550149822146295,1.6753241114053488,-0.22578246995863244,-1.4415773923778545,0.32944230040174627,0.8827593167216939,0.9191408066552241,0.20237780674516104,1.3082852841485768,-0.1518690464112103,0.9583409258930178,1.4813087500428155,-0.43869280694081936,0.019242318060723285,1.9863242721285754,0.2760868833352999,1.6264320135003658,-0.4521875958641942,1.5002840583415564,-1.0488743101835623,-0.912852327906394,0.4984171979995596,-1.4543646536412804,-0.38393781909825464,-0.4963925653331222,-0.2286030103936642,0.041041918667431794,-0.1544557428120694,1.1169470885701382,0.0287959306843495,0.8753012734044526,1.148055654575697,-0.8149309837246462,0.6968519614910117,0.43024529899667086,0.6127249667596062,-2.0652426370313446,-1.533490589366543,-0.8269952506598102,-1.1139313274609655,1.1716241214576033,-3.036795085595096,-1.6072180376200595,0.22839325084976492,-0.3592098007931309,0.36070593702483733,-0.9519232794517231,-0.7474128205697882,-0.13324564136082873,-2.323389811940872,0.36842588194756193,-1.7056956595247486,-0.9471108474398763,-0.5794383502945291,-0.36147513624707944,1.2148057061298,-1.9340824772126066,0.9635187715158563,0.03652281336619115,-1.8684260919477849,-0.16454044754075983,-0.08493574819130759,0.15170655067342348,-0.116356744865343,1.3149605979429233,0.3738683499128547,0.6984438239805736,-0.0340682957098029,-1.3187958822364043,-1.3307212901338392,0.09288004683857895,-0.432087736430098,-1.1586267221161668,2.1462120021433244,1.3186943166293463,0.3580092566049773,1.0251438759605618,0.5027760198892451,-0.6108434865524311,-0.09541200016644501,1.2650864657681882,-0.5517838601597922,0.4206790569239317,-1.559258115800473,-1.3120653098710313,0.07465583223443575,0.7489051539841178,0.12742499074383823,1.1707001913917972,-0.1975935993928716,-0.00898418786168301,1.9595253092318934,-0.717335348430179,-0.40551245785686296,-0.025697542090761576,-0.5019500186255403,-1.4009993883355323,0.409252453131226,0.14454857012418856,-0.254764564826178,1.305729228384334,0.37647261010805894,-0.6902820711611974,1.4019754999646523,0.8850086323524059,0.9717128892935923,-0.7616260263505956,0.17927759224053355,-0.5533088880362212,-0.4438540444156686,1.0474307089554982,1.01167153588921,0.08040253542746084,1.32117744178864,1.9534200634288563,-0.8239422798107019,0.20191535343817035,-0.8060143375164344,-0.5688951524138394,-0.34726728325060735,-1.0441976977349197,0.5674029331897942,-0.11246145521697082,-0.7981184692890477,0.13565778410197063,-1.5172529370837438,-1.4090135088523306,1.2788236052307378,-1.2565909958506138,0.15153495606639297,-0.3496084464628763,-1.448341815132617,-0.3519357954223123,1.0941518437061162,0.1649896628944254,-1.4481565988039558,-0.4587614695641908,0.20752829167734005,0.6438635316043811,0.5196192986548747,1.4893000904021356,-0.48027537646125457,1.1609840377224188,-0.46290687745411024,0.6490293942844971,2.449356604237757,-0.9014562504711703,1.3161415214891634,-0.19796865492017185,-1.5420216998706515,-0.9481066437284663,0.8115147494659772,0.01988786492960663,-1.1409923986645796,0.05864286912977342,-2.390372288691361,-0.22734676583305463,-0.32427729566451546,0.4946920844354772,-0.0759360069986444,-0.02974991254717252,1.0911062566901657,1.9789753219568997,-1.5717438931026642,-0.4391068588013979,-0.8655335850922463,-0.7211776372727288,0.17774133982331106,0.5892277702711475,0.25650783175999375,-0.9689866758250197,0.029146014411650503,1.0735232380206894,0.3020056054391813,-0.6413953356842131,1.4396523829697532,0.2531818770950641,-2.6692018586666433,-0.540998960379033,-0.7594340889529374,0.5296614478313336,0.7323328411786136,-0.2195706619905988,-0.8016851013052061,-0.9341781944381629,1.7401766550058582,0.9613402740592909,-0.2627009204979835,0.9551320628630304,-0.08617287548307799,0.8753121894723567,0.22110483616136858,-1.4041441455665205,1.9267726058434285,0.517233619824446,-0.9083490811606889,-0.7729789858802403,0.4350658767850591,1.0470032638758109,0.19657552484859792,-0.31855277467150234,-0.18696891940364485,0.9159803823324526,-1.113331413603775,0.7715846907837454,-1.5267105065104463,-0.32086801411556676,-2.217124404984459,0.40087632354299546,1.2636298302732434,1.068215823515106,-0.30501200006437956,0.9724850331674474,0.6508326778609388,0.20638884407378824,0.37277896608560446,-0.3095494916714094,-0.8687021680943867,-1.3173454794890962,0.9757883413556355,1.0374228189202397,-0.9143058589393404,-0.9179638427661271,1.0540986666864685,-0.022782976691989972,0.5972110426071136,1.2089094598511143,0.850141647387086,1.6092854745317353,-0.12194983831890568,-0.4036032572227272,-0.41898983948174484,-1.488718924209701,0.3320209831645279,-1.5127079698301438,-0.33985558915790104,1.3763509499193218,-0.630263058768891,-0.7830012087644103,-0.45757016046099236,0.7520848524812694,-0.2277375427865301,1.5535786308423984,-0.6681164651797448,1.1367516692197643,0.8706744862264814,-1.669870771261589,0.27354733994016145,-1.401455357129994,-1.4573042991628398,-2.750132714382915,-0.013041178593216038,-1.6185424802998951,0.054919191808038906,-0.010315869783964532,0.0005462208454854213,-1.3540752641118237,0.060818855453429084,0.5777543172990096,-0.18212976097280692,0.6466149921074893,-1.0832229871341108,-0.46763789422952007,-0.27819970123513166,-0.5121237720617885,0.9311280605004059,-1.1177725477476332,0.629599638118742,-1.259593099406017,-0.16745617956022463,-0.38577699932984927,1.3780337999911936,0.2709444020139502,0.6656929639436016,-0.7955822278689457,-1.0294942494045465,1.78850184979782,0.8339566397029022,-0.11531753194685143,-0.26283248662040765,-1.3003797033464342,-0.4844963557269658,-0.09798603542149938,-0.9803262044053198,0.3494348107357496,0.9799420691274335,0.30291639035628015,0.2330475922356512,-0.25178839111700385,-0.2318116490231844,-0.7421615027777283,-2.223189004332494,1.157264691305252,0.39527511410247435,2.102492743441518,0.7532860684899213,-0.6035998395225023,-0.5950336812255338,1.8503927524831667,-0.8736883793226298,1.4420362358616985,1.4920921976437471,-0.8589595546009877,-1.0120239191068126,0.6769996511309216,-0.38963628318085247,0.7723392023378354,-0.7753791417929145,-0.12698889849978523,-2.721103262058425,-0.157903689894165,-0.9248850359747716,0.5213082982136902,0.9345029322996962,-0.24795825412737263,-1.0804015676605945,0.1689992566617808,-2.0347315528178886,0.7858411876820689,-0.4436527131396298,-0.7006992249573711,-0.7696807865343892,-0.4608965722505568,0.17434627521373816,-0.008997549365785344,1.2474249353869358,-0.20849740806888684,0.7220230250699078,-0.5906567623500409,-1.2713120102983417,-1.5808405121269375,0.372053123650817,-0.265880111843062,0.0107355425242709,0.7984218825236208,-1.6932472792045565,-0.280391465281467,0.5036329372326622,0.8084426832872211,1.0552638216238706,0.37363154733512943,-1.2402938300546802,-1.3950082694860213,0.7946653286950791,1.4289110426121001,1.3501990163203974,0.7841650573752819,0.22779001843960253,0.32467434919470906,-0.040632572670762306,0.5607252965446301,1.9123802451190295,0.3414192502920379,-0.22018166439202713,0.8433269013054726,0.2642187323147825,1.0593855186092664,0.6067998679525055,0.34223887863425057,-1.7558101332744693,0.928870998901602,0.33790552813769736,-0.1991380533014196,0.05465732718648452,-0.4608731158664642,-1.561671121170177,-0.8758763137988085,0.3007990883175547,-0.12532218742188436,0.3567141334590421,0.16568530424174366,0.38029831581810186,0.15063059865046555,0.7061200668993014,-0.3216431053023507,-1.1792896343052393,-0.9260611296742346,1.7482832834393403,-1.8478918246115004,0.669696815606138,1.6919725088488486,0.6831911133033779,0.23455563290861398,-1.369457301717984,1.5378394575456216,2.3250856376915015,-3.165932573405741,1.4371600075271107,0.20686420487836762,-1.646954004850942,0.20427066687470893,-0.6703836463517571,-0.3816227050045476,-0.07711253885099273,-0.36903118335302526,0.9410732145930398,-1.2838555155354987,-0.7095877064096827,-1.5351986084937075,-0.616432493229447,1.8339697758894005,-3.0565461896396457,-0.823607683926794,-1.3127106200997813,0.846799859728452,0.609827335754901,2.4857942240828623,1.5185123387443034,-0.8156371234010169,0.0326669880010148,-1.252301858817782,-2.4462648982029416,-0.09421089152623022,-2.3448903093386404,-2.3177806580968507,-0.9452504832824931,1.3304171334909138,-0.48364897410264446,-0.879812286181494,0.6310591448140428,-1.015998168034394,0.3497861666408077,-0.16867300993273995,-1.2221834701927068,-1.9491058440866815,0.3892808527509974,1.1688356100067199,0.9985972547094075,0.5274144276479855,1.3129174727080881,-0.7616375805698608,-1.1351508718644667,-0.1437720890012384,-0.7561581642675325,1.5978894472452325,0.8250449444233767,0.11757000479570545,0.3709509831878763,0.754524373006629,-0.6246993799992023,-0.08016044677817243,-1.3729989380821888,-0.8499895392613831,-0.32353499033733174,-2.0386109572404765,-0.6020492711938881,1.4049121665805417,-0.19051473448222095,-0.8206487830339707,-0.015964791012211287,0.4908726996834895,1.003247254463194,-0.21253057318180194,1.3165746875250448,-1.4285656676563576,-0.31500521358765593,0.9921349816631899,0.028134170672792145,-1.1401110471766034,-0.5229426572692022,0.8261488070347139,-0.21394591198595214,0.7908499858649024,-0.773397113273456,-1.0105001353603646,-2.0356616808597376,0.44848080490549186,0.19906016280960448,-0.41408324313618594,0.8371613607094059,-1.0042920838836333,-1.1440311351371095,-0.0881286276632129,-1.3300434147358555,1.413089280898717,-0.38016715406947515,-0.7077299845158768,0.5707716302120889,0.48665400234713485,0.8759537122407045,-0.3684796413354913,0.16246359660851076,1.7813299424371851,0.8163860974839489,-0.17586065982750454,-1.0351053734020355,1.1173086737453626,1.5224601107421993,-0.8066127035840309,0.4101212190582148,-0.2650780172437019,0.06037232067926822,0.8450901386226541,1.7557878380065537,0.07742379923529373,-0.8989391811767203,-0.028682078603950514,-1.1562006455921585,-0.820407924876249,0.6675805493259435,1.883799211602149,-1.6811420902589864,-1.4266742220893789,0.0731258765656269,0.46667164569786235,0.37006201646402737,-0.4923356380947759,0.686977499113957,0.6381425876028489,1.2994587866573142,-1.0135990299941215,0.5993566043355001,-1.5015558761434156,1.414891638193413,-0.821884584244716,-1.8122046742309053,0.7908301069883007,-1.1210760041775931,1.918116789871855,-0.023015450404373906,0.15420394091514442,-0.1834314208616438,1.5077457098168252,1.2868216985068865,0.32024480760050206,-1.9152552133905854,-0.09688898857093481,-2.0451603369667986,0.16555446406590707,-0.8141976997981456,-0.1346967596581738,-0.96825560230854,0.6969952267079756,-0.5863136701851741,-0.4752734235749835,-1.1475703169223552,2.1874671551411153,0.37714999114240555,-1.5466650463210267,-1.3496459356653714,-0.7040999729380453,1.2996191530112615,-0.029217323422995423,0.4861523310080823,-0.3857063922061665,-1.0430796078829723,-0.16644832966394063,-1.6940464427697401,0.44645700834201707,0.8522904081258268,0.9623820852051057,-1.4977576087974687,0.8478544526563961,0.7553193124320442,0.7642655592761611,-0.5875290417955199,1.2405150831404523,0.322960512557759,0.09680164127186339,-1.3184086344150496,-0.07889833919280595,0.5732810133247682,0.01322459899547155,0.4987309184264821,0.6112967647334632,-2.749214975343858,2.0728625298647883,1.5802877069633923,-0.7350509509802515,0.9867469819347772,1.165658654584852,-2.592250398579548,0.2226114904011358,1.4770684501469193,-1.0290950232667144,-0.4603693355108884,0.07245442013843333,-0.06911701971472377,-0.06336846310216064,-1.1678561326432735,-0.4515324507999528,-0.6379567360150483,0.5773148508072302,1.5592700589500446,-0.8982556724904176,1.5984382148745238,-1.1369090914993953,0.4104486214913663,0.658580502176495,-1.0420159983300796,-0.2683724347642056,2.336902745461956,0.09734091334151618,-0.2620459707956161,-1.5255216629524049,-0.16565780333585123,-1.3207115758680295,0.5157145658931765,-0.5716733776880499,-0.08670780421115155,0.07511247057922622,1.9263412723493012,-1.2577059967659299,0.008573823712161732,-1.1209780512603624,-1.61797948398938,-0.910328789030409,-0.5399057391816625,-0.21905222578377148,-0.4976322791712025,-0.26782703627612037,-0.7132959901389162,0.03962967308017999,-0.44160159073358596,0.28276799348270404,0.5202413745004665,1.5666200105969754,-0.5798896871775747,3.158237702807123,-1.6105680309202397,0.33963003895321187,0.8510348230113827,0.6118867308948875,0.40172296923538586,-0.312944251015827,2.13197664897282,-0.14568117703365094,0.05292786299395994,0.37773876396749756,-0.6592270437041854,0.1637432583207856,1.7623603838742126,-0.9637379862752126,0.01802833633863055,-0.8404465024614871,0.19118230019912197,0.22494067597543455,2.2187238560911338,-0.32066271994534384,-0.013973564403869447,-0.09321275788258997,-0.34589810595097875,1.4806260926961843,-0.4408943823874647,0.4771032445913005,0.705656276461831,0.3949357714672947,0.311666788588792,0.4583806579187409,1.558829794901451,0.18264268940931364,-0.7072760172982757,-1.1087959833590137,1.0035302951027143,0.44122184888892524,0.5918469440540863,0.5025810755081984,0.7783557938678337,0.2774200883057157,0.3262898764009163,-1.1540803254416727,0.15755506501320474,-0.7722832572617288,-0.4622690218166048,-1.799000699345552,0.5651645675818712,2.113604332372745,1.5191442973785494,0.6164115868724355,-1.2133483786220016,-2.497524492000787,-0.5748727552694027,-0.6873718772866023,-0.15101139030908808,-0.265156948964723,1.3900810133331138,0.2042881090681566,-0.34950777886771467,0.8772583098560488,1.8917507879184772,2.0557547391788935,0.652365112103891,-1.8821869263513993,1.053929649994557,1.600213308244076,-0.08121212082985947,0.15361707356687493,-0.8932114245855849,-0.2529885443236969,-0.47832778027805184,-0.2880408588497548,-0.19470622974506147,0.4867889732351346,1.02257512557481,0.5510364494602428,0.7466148628384143,0.7125242062875798,2.1767712332465443,0.0574055547255258,-1.0002695296369952,0.6745149568541735,0.9988105930343341,0.2502349409206339,0.6980583367035458,-1.4862809902074892,2.33353494341909,-0.873792267634812,0.7509576074589088,0.6105083668766975,0.6138458497333784,-0.3358692019574128,-1.2530961281191229,0.5381953528509206,1.025449509616009,0.09812701870562392,-1.1322825456045498,0.36225755174972235,0.849133564773645,-0.07342048873764266,1.8294272007301597,0.45284583868605105,-0.7184194604614549,1.0259863539130756,1.4995354180857667,-1.0415476693155625,0.03941869629267443,-2.2075918256607405,1.2993936604526128,1.4519759944395707,-0.948313023335903,0.4603970800180482,-0.4764727978539965,-0.7757198230106719,0.3268090281783144,0.36041959295990644,-0.39620392184557585,0.9603238047730245,-0.11900045301484097,0.7458127765928367,0.2914993738739909,-0.7919959702001302,1.152892915064044,-0.43504150175534945,1.2801897723193194,-1.685187500401419,1.1920764142033353,0.4753010289371867,1.8296679877803137,1.5995553148583173,0.3861237481960294,-0.01454749571142726,-0.6558003388568435,-0.2198132081702454,-0.4548414119830454,-0.24822539812298833,0.17546159353413376,0.5861199000574773,-0.42479294070943174,-0.5660929970892583,2.4694809333781724,0.8538978344282364,1.9276745045426582,1.3305077196995272,0.14352777091492036,-0.2813572771210174,0.12423818006515688,-0.7325699300617724,1.438503184183221,-0.9882597770824696,-1.0475456830796577,0.3712127872661804,-0.22015175286373578,1.0069376100992655,-1.6199480316568242,-0.04041924685743539,-0.03880920530402487,0.3924249101811148,1.1224480641757992,1.1969673096443871,0.21018071166832672,0.7412088829108925,0.14796841077266704,-0.510767785786096,1.0862159433441254,0.5981231971818703,1.6211829308363634,0.15732025777004002,0.5762835049200317,-0.92149948868577,0.4606337677549532,-1.0158330946533431,0.10851335479075716,-0.7275594127421072,0.005398664356969649,0.2765128185448689,0.8873157530574515,-0.6399596368632388,-0.6108652964559823,-0.21754061630047938,-0.8471474499578383,-0.27106938159174565,-1.4389618717263402,0.9645518834838586,0.7534873951827029,0.9979989984237351,-1.8844227034580656,2.0503537778879277,-0.037291518412015105,-0.6226935869165919,0.7857814197761687,1.2477597964208316,1.2224796942603933,-1.7233775181247564,-1.6966719441051517,0.7537616392548938,-1.2445965871760984,-2.100987801569272,-0.0048804308429249415,-0.15587964294292136,0.46941361594144065,0.9860690512819442,-1.3896373024687068,0.70021259804508,0.13087455367189785,-1.2714183610661014,-0.4130402362856189,0.9222565285934059,-0.9833308503645003,-0.31485535992324354,-1.0370493833473295,-0.5972812155971845,1.2694349284365039,-1.7990775245393804,0.12502761182634733,-0.09761161281090812,-1.4792417889637937,-1.4160759846881814,-0.3376024770014594,0.3921797719902086,-1.268565586400161,-0.3333993851174074,-0.44467108784515175,-1.292366518057659,1.147420938563834,-0.5432977405236559,0.8791273439143806,-1.9984522653725045,-0.5337545391629064,-0.186049840543234,0.3847254034737679,-0.012274730122282912,-0.8409086571473564,1.5805828725185638,1.7739146159648769,-1.3948430140642878,-2.980285502737289,-0.28404443577214894,-0.8595266006201256,0.7145451922458134,0.2155041714564688,2.4210212692104145,0.01930098508228212,-0.444893853413273,-0.8694767801272533,-1.1896593614464452,-0.37343059787075394,-1.3167749037927998,-1.8078843506372106,0.06300036065771851,0.27742727171377246,0.6371310309251709,1.1152215536633128,-0.41164154705464745,0.659750424608548,2.0834033274241994,0.5443765151830754,-2.4308264243132833,-1.2849088741079386,0.4402010831355379,0.041210380540747965,0.27289044619005365,0.9936903953619718,0.36806156353459957,-1.1077527701155045,0.27037829518406065,0.6994219825866328,0.8302380747213465,-0.6412398388398649,-0.12577416742226138,-0.26434981038902877,-1.4938484501398182,-0.42411817941569796,-0.42988111769873455,-0.9897884879987615,-0.6459830371874979,-0.7581497835697483,-1.8181805071306862,0.1137901762884199,0.8175769722631067,0.8451567139393075,-1.1309090427717394,0.06139327297496401,-0.0034471371867454952,2.617114464875494,-1.2641006772604786,-0.7324133415974292,0.8253198265918771,-1.722760475693418,-0.660967878829609,-1.3327281040136876,-0.5437168126230093,-0.2452649902309507,-0.32202201378573103,-1.5381100273337212,1.734073432487797,-2.1752981100998894,0.8629781148404988,-0.19135910201534284,-1.7360905971059808,0.18607139828268723,-0.8110205248291502,1.8961416607352253,0.5429117257235366,0.3511264199586062,0.12267494073980319,1.2842628714092887,-1.2410417254067523,-0.1251857514341079,1.0441197979823051,3.85662331379318,-0.8457945158261311,0.20750882513405322,0.9938455857143673,0.1706986903889005,-0.8826779352430458,-0.5399276138328727,-0.0033990737855661064,1.1221667941730826,0.7841594830458077,-0.06214742272997949,0.0005420054141998371,-1.2405492764257757,-1.5870682230260467,-0.2815753148914424,0.6272548614140546,0.019016495685967083,-0.14307959428180445,-0.6397692217830772,-0.7450665421087588,-0.06393862732378008,-0.6218917388360441,0.6661584002551032,0.06852809272948993,-1.5307729671158394,-0.6897320015666336,0.329414991517287,-1.0184151478412822,0.31504325444798903,0.4188059998675892,-0.2500425209377929,-0.2915568843677564,-0.11633010445092726,-0.44069139307769367,-0.9085675057597828
O76074,-0.02464473806321621,0.14848971366882324,0.15404343605041504,0.03999427706003189,-0.1265132874250412,-0.11893057823181152,-0.2437100112438202,0.2747940123081207,-0.07931176573038101,-0.1547783613204956,0.04744718596339226,0.10862153023481369,0.1272045075893402,0.25442561507225037,0.1072116270661354,-0.13980893790721893,0.4194414019584656,0.27689146995544434,-0.1995713710784912,-0.0821245089173317,-0.039001841098070145,0.190853551030159,-0.06345567107200623,0.047451797872781754,0.2473546713590622,-0.18083444237709045,-0.10430140793323517,-0.25016066431999207,0.17534752190113068,0.13726885616779327,0.08205824345350266,-0.10118906944990158,0.16452617943286896,0.02654450386762619,0.16727545857429504,-0.0938776507973671,0.017846034839749336,0.12729524075984955,0.04162417724728584,0.16873903572559357,-0.27874255180358887,-0.02990095317363739,0.08464934676885605,-0.006929928902536631,0.11763009428977966,0.1457732617855072,-0.05047037452459335,0.15214098989963531,0.01853666454553604,0.14365963637828827,-0.05316128209233284,-0.07475197315216064,0.05804481357336044,0.08591973781585693,0.05596868321299553,0.052889857441186905,-0.031184831634163857,-0.03307109698653221,0.16106519103050232,0.19543464481830597,0.11268653720617294,-0.08091367036104202,-0.08439815789461136,0.16407901048660278,-0.020008966326713562,0.20753826200962067,0.1687907874584198,0.015398381277918816,-0.01175584178417921,-0.054987888783216476,-0.0308696236461401,0.17207463085651398,0.2785669267177582,-0.2715197503566742,0.15531975030899048,-0.09969358891248703,-0.10598883777856827,0.2491472065448761,0.04937807098031044,0.01637944206595421,-0.10965341329574585,-0.2634022831916809,-0.23430423438549042,0.06249453127384186,-0.24037598073482513,0.2185875028371811,0.01942260004580021,-0.017858561128377914,-0.01025548204779625,0.053928885608911514,0.18936164677143097,-0.1423245370388031,-0.0005988826742395759,-0.16182996332645416,0.0896010547876358,-0.03316972404718399,0.19759126007556915,0.11554855853319168,-0.0751575157046318,-0.06695319712162018,0.1492588222026825,-0.017849914729595184,0.014207928441464901,-0.2476036250591278,-0.08798813819885254,-0.06822864711284637,0.20322583615779877,0.3457736670970917,0.24189874529838562,0.17058402299880981,-0.2852744162082672,-0.0018069359939545393,0.029826387763023376,-0.2388203889131546,-0.06145863234996796,0.07331421226263046,0.03027276322245598,-0.10015542060136795,0.053880926221609116,-0.06168356165289879,0.04377802088856697,0.11801844090223312,0.0099241454154253,0.1368281990289688,-0.0140626085922122,-0.15433570742607117,0.02051263488829136,0.11477471143007278,0.012220270000398159,0.07397393882274628,-0.05151025950908661,0.45923781394958496,-0.053506359457969666,-0.13542312383651733,-0.16246801614761353,-0.053666114807128906,-0.07658673822879791,0.050510261207818985,0.08106215298175812,-0.23449426889419556,0.1427636295557022,-0.03538546711206436,-0.05084703117609024,-0.08916429430246353,-0.1714567244052887,0.07863162457942963,0.04150993004441261,0.3221631944179535,0.11387712508440018,0.11970039457082748,0.12238552421331406,0.07968992739915848,-0.1716488152742386,0.09594953060150146,0.10702380537986755,0.24181005358695984,-0.042475659400224686,0.11574958264827728,-0.21106724441051483,-0.17430664598941803,-0.2613919973373413,0.20583389699459076,-0.19395843148231506,-0.193869948387146,0.227615624666214,-0.00991718377918005,0.12649475038051605,0.22147738933563232,0.10237888246774673,0.33968618512153625,0.18954972922801971,-0.16299183666706085,-0.14333775639533997,-0.06016235053539276,0.29286834597587585,-0.06308186799287796,-0.060394033789634705,0.01306628156453371,0.1051434874534607,-0.19335660338401794,-0.07798183709383011,0.0090755894780159,0.03447943180799484,0.041952405124902725,0.25719958543777466,-0.06577815115451813,0.32940036058425903,0.06616013497114182,-0.10027211159467697,-0.09211573749780655,-0.027783237397670746,0.05755499750375748,0.01685650274157524,-0.004003862850368023,0.044222116470336914,0.019130676984786987,-0.06445740908384323,-0.01982417143881321,0.05133899301290512,-0.1082673966884613,-0.13621389865875244,-0.08029939234256744,0.038670968264341354,-0.007946288213133812,0.09615721553564072,-0.002851114608347416,-0.15935519337654114,-0.007163232192397118,0.08309207856655121,-0.12348513305187225,-0.010410328395664692,-0.047613900154829025,0.1061350628733635,-0.19264636933803558,0.06964582204818726,0.055245134979486465,0.04933391883969307,0.1685492992401123,-0.11487793177366257,0.1755230575799942,0.02580842934548855,-0.05388326942920685,0.19889695942401886,0.23527628183364868,-0.050420064479112625,0.1461789608001709,-0.051152460277080536,-0.07877375185489655,-0.20138993859291077,0.12382779270410538,-0.014939396642148495,-0.18224386870861053,0.04468264430761337,-0.06322334706783295,-0.21811363101005554,-0.05660174414515495,-0.20336268842220306,0.12079869955778122,0.17101499438285828,-0.10785792768001556,-0.05708722397685051,-0.09286274760961533,0.09194674342870712,-0.2207714021205902,-0.004784435965120792,-0.06183449551463127,-0.06813052296638489,0.031799983233213425,0.0996546745300293,0.08906709402799606,0.07448477298021317,-0.03922208026051521,-0.15300357341766357,0.045971937477588654,0.11054230481386185,-0.02437567710876465,-0.09883052855730057,-0.15859472751617432,-0.09106066077947617,0.015050881542265415,-0.12201434373855591,0.05765920132398605,0.07108480483293533,0.18350812792778015,0.11938593536615372,0.06799843907356262,0.07200997322797775,0.10277628898620605,0.10343538969755173,-0.08327623456716537,0.092735156416893,0.14290523529052734,-0.08498157560825348,-0.0300042275339365,-0.39988088607788086,-0.07509150356054306,0.015114500187337399,-0.06634550541639328,-0.016470646485686302,-0.035004496574401855,-0.047906067222356796,0.02730259858071804,0.16782929003238678,0.07679099589586258,-0.17929700016975403,-0.04914672672748566,0.10797197371721268,0.013157575391232967,0.20163872838020325,-0.03610320761799812,-0.04400251805782318,-0.16365668177604675,-0.11869233101606369,0.22688502073287964,0.05632808431982994,-0.14434649050235748,0.01607671193778515,-0.19470244646072388,0.2812782824039459,0.05846225097775459,0.0018534829141572118,-0.1986820101737976,0.044542502611875534,0.08571070432662964,0.057855021208524704,0.1670946180820465,0.3289410173892975,-0.35438939929008484,-0.15283039212226868,0.19812709093093872,-0.08969055861234665,0.07884065806865692,0.10876499861478806,-0.15433575212955475,-0.08751216530799866,0.1559191793203354,-0.16287761926651,0.1973709762096405,-0.025731844827532768,-0.06978809833526611,-0.08613744378089905,0.23870524764060974,0.18233604729175568,0.12911592423915863,0.004754978697746992,-3.9004735299386084e-05,0.1907752901315689,0.16453847289085388,-0.16500820219516754,0.1469537913799286,0.028843235224485397,-0.005842170678079128,-0.29578837752342224,-0.05601763352751732,0.030613290145993233,0.14605924487113953,-0.1515059471130371,-0.07612112164497375,-0.07271790504455566,0.06951962411403656,0.05145159736275673,0.06254170089960098,0.22980691492557526,-0.18135111033916473,0.03547214716672897,-0.08993597328662872,-0.06318483501672745,-0.06918580830097198,0.048490915447473526,0.12698648869991302,-0.04539290443062782,0.2330227792263031,0.2518550455570221,0.018158212304115295,-0.34253445267677307,0.10786031931638718,0.1299983263015747,0.07733679562807083,0.0331980362534523,0.14149433374404907,-0.028259797021746635,0.0299671720713377,-0.014674455858767033,-0.16887497901916504,-0.07629848271608353,-0.16719938814640045,0.1485130935907364,-0.1256839483976364,0.056677594780921936,0.0037868486251682043,0.004396931268274784,-0.013139219023287296,-0.12739475071430206,-0.05821292847394943,0.08128900080919266,0.026832712814211845,0.31825509667396545,0.14376738667488098,0.1719314306974411,-0.16113124787807465,-0.11150524765253067,-0.1275888830423355,-0.2411658763885498,0.039292167872190475,0.27617838978767395,-0.11497973650693893,0.28889399766921997,-0.1424819827079773,-0.04990517348051071,0.19948415458202362,-0.08617855608463287,0.015016111545264721,-0.010088306851685047,-0.11639542877674103,-0.13253569602966309,0.006321633700281382,0.003205146873369813,-0.17105942964553833,-0.2598074674606323,-0.06714937090873718,-0.20732687413692474,-0.2035762220621109,-0.09076224267482758,0.07356201112270355,0.050557155162096024,0.3234982192516327,-0.11786921322345734,0.01874857395887375,0.13464409112930298,-0.11256706714630127,-0.1008731871843338,0.1832892745733261,0.16571460664272308,0.0242233294993639,-0.040021926164627075,-0.16051672399044037,0.054313793778419495,-0.05935730040073395,0.10864484310150146,-0.003900662064552307,0.13957063853740692,-0.04633209481835365,-0.19404827058315277,0.0384347029030323,-0.004306957591325045,-0.138545423746109,0.15271857380867004,0.18706580996513367,-0.13790129125118256,0.10189738869667053,0.20561300218105316,-0.09803231060504913,-0.15506279468536377,-0.07558009028434753,-0.2934193015098572,-0.14891724288463593,-0.14275750517845154,0.043238565325737,0.18380719423294067,0.044300150126218796,0.1450081616640091,0.03600352257490158,0.058418698608875275,0.1872299611568451,0.06652846187353134,-0.029927941039204597,-0.3553489148616791,-0.08807887136936188,0.1369737982749939,-0.02700311318039894,-0.42604416608810425,-0.15705783665180206,-0.25113555788993835,-0.13154006004333496,0.15699371695518494,-0.26022663712501526,-0.3044537901878357,0.09358029067516327,0.003913206048309803,0.03694985806941986,0.11119695752859116,-0.1020374521613121,-0.17986272275447845,-0.047160375863313675,-0.0187221672385931,-0.08617448806762695,0.16490483283996582,0.1335677206516266,0.20257917046546936,0.16060663759708405,-0.1399976909160614,0.05186857655644417,0.1127113625407219,-0.24335215985774994,-0.04184138402342796,-0.09042423963546753,0.2689296305179596,0.00808278750628233,0.18870773911476135,0.194441556930542,0.21278971433639526,-0.15703628957271576,-0.21715641021728516,-0.050643861293792725,-0.05003170296549797,-0.08259373903274536,0.04567349702119827,0.0714067816734314,0.019813133403658867,-0.11002598702907562,0.046839285641908646,-0.2110961377620697,0.1618204116821289,-0.06401097029447556,0.0743020698428154,-0.06508851051330566,0.19098158180713654,-0.1254608929157257,0.04991590231657028,-0.20267091691493988,-0.009003043174743652,0.01063641719520092,0.2189745455980301,-0.058635909110307693,-0.029602233320474625,-0.08605911582708359,-0.21729077398777008,0.007167178671807051,-0.022931832820177078,0.025145333260297775,0.16322097182273865,0.2371671199798584,-0.1240721344947815,0.029209768399596214,0.2205914407968521,0.0034644175320863724,0.12667298316955566,-0.008962678723037243,-0.3983570635318756,0.1526760458946228,0.21167278289794922,0.1474027782678604,0.1402474343776703,-0.22110548615455627,-0.06225557252764702,-0.026747649535536766,0.03056511841714382,0.07493441551923752,-0.013679608702659607,-0.14912986755371094,-0.2541697025299072,0.008673693984746933,0.09295159578323364,0.25462040305137634,0.14114204049110413,-0.11584918200969696,0.11178264766931534,0.20086410641670227,0.14682531356811523,-0.10255324095487595,0.18089087307453156,-0.10925509035587311,0.05616870895028114,-0.11214667558670044,0.10796920210123062,0.16544808447360992,0.19219227135181427,-0.09252310544252396,-0.03482711687684059,0.03643571212887764,0.06088096275925636,-0.13848093152046204,0.07972700893878937,0.11257407814264297,-0.03899296373128891,-0.11011499911546707,0.19517351686954498,-0.1460244059562683,-0.18698067963123322,-0.22191761434078217,0.05239488556981087,-0.09137394279241562,-0.07478896528482437,0.3179519474506378,0.3104284107685089,-0.009091918356716633,0.3353247046470642,0.04725545272231102,-0.0775173008441925,0.12141841650009155,0.04459439218044281,-0.06162947416305542,0.09969067573547363,0.04944370687007904,0.005449486896395683,0.2341948300600052,0.2390137016773224,-0.14681152999401093,-0.015409140847623348,0.12635396420955658,0.31198981404304504,0.015430609695613384,0.23909448087215424,0.15735161304473877,0.09008374065160751,-0.1164533793926239,0.05071723461151123,-0.06239999085664749,-0.19717735052108765,-0.0112312575802207,-0.09253013134002686,0.07332820445299149,-0.09074012190103531,0.005015896167606115,0.1599193662405014,-0.061291564255952835,0.14001865684986115,0.16250956058502197,0.05161028355360031,0.05433560907840729,0.005622167140245438,0.06355384737253189,0.1266096830368042,0.09600900858640671,0.34152936935424805,0.10342495888471603,-0.01972339302301407,-0.029001295566558838,0.06502263993024826,0.014997280202805996,-0.004083289764821529,0.03075285069644451,-0.29831960797309875,-0.052282799035310745,0.235158771276474,-0.03776867687702179,0.0684339851140976,-0.008711720816791058,-0.14142684638500214,-0.09910794347524643,-0.08027604967355728,-0.011410661041736603,0.006513161119073629,-0.016725607216358185,0.2428244948387146,0.06682136654853821,0.10263741761445999,0.35391849279403687,-0.01284408662468195,0.03526294231414795,-0.0923595204949379,0.0006684483378194273,0.049054164439439774,-0.024572230875492096,0.05203970521688461,0.0491509847342968,0.010615596547722816,-0.09391807019710541,-0.2592765688896179,0.09796573221683502,-0.17613357305526733,0.1653481274843216,0.14821794629096985,-0.07216126471757889,-0.01157748606055975,0.03444870561361313,0.7452112436294556,0.06665278226137161,0.09614226967096329,-0.18824002146720886,0.03479648008942604,-0.16584888100624084,0.06475816667079926,-0.1350594311952591,0.014328628778457642,-0.007997442968189716,0.028452061116695404,0.3025892376899719,-0.027920132502913475,-17.277767181396484,-0.09177015721797943,0.07102637737989426,-0.01573055237531662,0.04466430842876434,0.14021722972393036,0.014666454866528511,-0.06308374553918839,-0.14305195212364197,-0.02582123503088951,0.1917562037706375,0.057752516120672226,-0.018615521490573883,-0.10674432665109634,0.001503392937593162,0.29913848638534546,0.07038041949272156,0.3396605849266052,0.002588927745819092,-0.12883947789669037,-0.23613618314266205,-0.1162378266453743,0.04597217217087746,-0.053723473101854324,0.002376612974330783,0.2023904174566269,0.2695942521095276,0.047607239335775375,-0.4789946973323822,0.06537751853466034,0.04292165860533714,-0.10834312438964844,-0.01270295586436987,-0.04309092462062836,0.03480910137295723,0.19018954038619995,-0.03694930300116539,-0.3371337652206421,0.0003889920481014997,0.06150944158434868,-0.14713121950626373,0.04818057641386986,-0.047410834580659866,0.37745144963264465,-0.18512509763240814,-0.1525581330060959,-0.10123361647129059,0.0019423632184043527,-0.2687472999095917,0.03138914704322815,-0.060282737016677856,0.027056992053985596,0.07865624129772186,0.0020504372660070658,-0.1151266098022461,0.07556638866662979,0.1423693597316742,-0.1840786635875702,0.26917943358421326,0.026148265227675438,-0.055666618049144745,-0.06517637521028519,0.2380610704421997,0.13216999173164368,0.05261911079287529,-0.19021473824977875,0.2691958546638489,-0.07121682167053223,-0.005751866847276688,0.04717785492539406,-0.3444143831729889,0.10589544475078583,0.013731272891163826,-0.0438467375934124,-0.0962124913930893,0.22027133405208588,-0.12224461883306503,-0.23237372934818268,0.33054450154304504,0.2652239203453064,-0.014305030927062035,-0.03415424004197121,-0.19929896295070648,0.017275549471378326,0.10265442728996277,-0.019345324486494064,-0.08244901150465012,-7.56923109292984e-05,0.03139875829219818,-0.21199487149715424,-0.0767439603805542,-0.10139834135770798,0.21321958303451538,-0.08577267825603485,0.022910814732313156,0.18121083080768585,-0.1244838684797287,-0.15215325355529785,-0.144889235496521,0.22261960804462433,-0.2728312313556671,0.08396416902542114,-0.07140851765871048,0.18274037539958954,-0.08787709474563599,0.018527770414948463,0.00172652758192271,-0.0790514126420021,0.36545130610466003,0.16349026560783386,0.01107810065150261,0.08646240830421448,0.14631593227386475,-0.13896067440509796,-0.1144484132528305,-0.10772711038589478,0.009302938356995583,0.1862790286540985,0.19138599932193756,0.006810457445681095,0.19103506207466125,-0.11861557513475418,-0.13926692306995392,-0.11424791067838669,0.08485803008079529,-0.011878208257257938,-0.14779990911483765,0.06062990799546242,0.1934470236301422,-0.0013279193080961704,0.11484520882368088,0.04209890216588974,0.008816688321530819,0.10712747275829315,0.015807099640369415,-0.16418077051639557,0.03398016840219498,-0.09234609454870224,0.054390788078308105,-0.06978075951337814,-0.12381630390882492,-0.05862251669168472,0.10061715543270111,-0.12365196645259857,-0.044482458382844925,-0.15429900586605072,0.19780279695987701,0.2793111801147461,-0.06639180332422256,0.1454501450061798,0.18037541210651398,-0.15084736049175262,0.026353806257247925,0.04120007902383804,0.134248748421669,0.09927600622177124,0.07316338270902634,-0.16889148950576782,-0.0022906598169356585,0.12610739469528198,0.05340486764907837,-0.19814540445804596,0.24469919502735138,0.1828090250492096,0.09921294450759888,0.09070715308189392,0.08106037974357605,-0.05686754360795021,-0.07287409156560898,0.29542508721351624,0.01735091023147106,0.019220685586333275,-0.06509047746658325,-0.06293517351150513,0.24201899766921997,0.02773415297269821,0.3123142719268799,0.202749565243721,0.0061083585023880005,-0.18621498346328735,0.21061840653419495,-0.23474644124507904,0.054961517453193665,0.062328919768333435,-0.05483623221516609,-0.35327744483947754,0.06112046539783478,0.010321222245693207,0.0690220519900322,0.03122824802994728,-0.009099841117858887,0.09039919078350067,0.16816109418869019,0.21822762489318848,0.24217268824577332,0.16265617311000824,-0.042389463633298874,0.021630432456731796,-0.10661198198795319,-0.09953629970550537,0.025338279083371162,0.13076016306877136,-0.018929656594991684,0.1938248574733734,-0.08234614878892899,0.15203317999839783,0.23927713930606842,0.005218268372118473,0.14706431329250336,-0.21247687935829163,-0.04968512803316116,-0.04041958972811699,0.32226815819740295,0.12158925086259842,-0.22161519527435303,-0.08575388044118881,-0.14699877798557281,0.0968632623553276,-0.10701579600572586,0.025788746774196625,-0.2766520082950592,-0.19950470328330994,-0.09065862745046616,-0.14028114080429077,0.1155158057808876,0.12621194124221802,0.14199726283550262,0.07319343835115433,0.06747715175151825,-0.01849089190363884,0.25727367401123047,0.1689426749944687,0.30803218483924866,-0.17475175857543945,0.041945625096559525,-0.06916390359401703,0.09990042448043823,0.007363711949437857,-0.006319624837487936,0.27193185687065125,-0.006360290572047234,-0.011300460435450077,-0.15024250745773315,0.08509191125631332,-0.2845954895019531,-0.09427250176668167,0.07802116125822067,0.1526540368795395,0.18386627733707428,0.6202051639556885,0.05459056794643402,0.02108711190521717,0.1049114242196083,-0.1538320779800415,-0.14189794659614563,-0.03728002309799194,-0.020334264263510704,-0.15426379442214966,0.0925748199224472,0.08067179471254349,0.07597135752439499,0.10327356308698654,-0.06344539672136307,-0.22588366270065308,0.07878967374563217,-0.1530880630016327,-0.09983440488576889,-0.5517313480377197,0.024725625291466713,0.2505173087120056,0.013743085786700249,-0.08740251511335373,0.16359718143939972,0.050445206463336945,0.20148302614688873,-0.14335311949253082,-0.23893895745277405,0.11558280885219574,-0.28996849060058594,0.14269326627254486,-0.015147028490900993,0.09307143092155457,-0.39260944724082947,-0.09279695898294449,-0.09128513187170029,-0.05123775079846382,0.3126136362552643,-0.21879978477954865,0.048702485859394073,-0.06744246184825897,-0.011583360843360424,0.40406128764152527,-0.09997633844614029,0.03693663701415062,-0.2888449430465698,0.060697466135025024,-0.1614694595336914,0.123334601521492,0.12924696505069733,0.02965247631072998,-0.012308897450566292,-0.030785156413912773,-0.06098688021302223,-0.08740691095590591,-0.08957047015428543,0.1954910010099411,0.1576833873987198,0.08550868183374405,0.1926737278699875,0.1824074685573578,0.03824532777070999,0.10638515651226044,-0.24433362483978271,0.25362271070480347,-0.16955608129501343,0.2596835196018219,0.24278399348258972,0.20967620611190796,-0.03783353790640831,-0.14836236834526062,0.2956937849521637,-0.026428699493408203,-0.08654344826936722,-0.06636770814657211,-0.27159780263900757,0.11188089102506638,-0.1526753306388855,0.031046515330672264,0.29515084624290466,-0.11083530634641647,0.12065991759300232,0.061634987592697144,0.02422197163105011,0.1803685873746872,0.2059255689382553,-0.04138632491230965,0.13866326212882996,0.0944984182715416,-0.11040250957012177,-0.023643571883440018,0.1512812077999115,-0.10312339663505554,0.061433009803295135,-0.16116955876350403,0.07061734050512314,-0.054051026701927185,0.0012687923153862357,-0.03520474582910538,-0.03558337688446045,0.0689304918050766,-0.03779691830277443,-0.0087134325876832,-0.16298946738243103,-0.11907703429460526,-0.00046226938138715923,0.49046412110328674,-0.022902602329850197,0.04585827514529228,-0.13457326591014862,0.06137344613671303,0.20393885672092438,0.24212214350700378,-0.11136554926633835,0.01613517478108406,0.04606782644987106,-0.15073330700397491,0.21865461766719818,0.05810214579105377,0.15602456033229828,0.04087391868233681,0.15299519896507263,0.04238289222121239,0.0732332095503807,0.19472040235996246,0.2044367641210556,-0.17550228536128998,0.12693458795547485,0.01290731132030487,-0.06689556688070297,-0.14497174322605133,0.011571167968213558,-0.007451583631336689,0.11699410527944565,0.13010087609291077,0.18553124368190765,0.1736975461244583,0.16297787427902222,0.02874843031167984,0.17192699015140533,-0.09090784192085266,-0.01666068285703659,0.11649559438228607,-0.08949071913957596,-0.04326732084155083,-0.12219354510307312,-0.052394382655620575,-0.01855412870645523,0.1535368114709854,-0.00027451541973277926,0.0524328388273716,0.308213472366333,0.1488804817199707,0.15630899369716644,0.12712505459785461,-0.09995847940444946,-0.22390276193618774,0.17780490219593048,0.15924224257469177,0.12333528697490692,0.1779896765947342,0.0007852570852264762,-0.057275429368019104,0.15031321346759796,0.010328692384064198,0.09716887027025223,-0.03265146166086197,-0.1763073056936264,0.17506623268127441,-0.022207101806998253,0.023303601890802383,0.09552227705717087,0.0018298448994755745,0.014945152215659618,-0.17298834025859833,-0.008117862977087498,-0.01867290958762169,0.08652616292238235,0.1390906721353531,0.2544328570365906,0.05924550071358681,0.1368017941713333,0.0537073090672493,0.12499696016311646,-0.15396668016910553,0.0025910709518939257,0.09062588959932327,-0.039596524089574814,0.09851538389921188,0.07570497691631317,-0.017267173156142235,-0.09384164959192276,0.2821196913719177,0.3603252172470093,0.06258897483348846,0.04990418627858162,-0.25725609064102173,-0.07581832259893417,0.15273529291152954,0.08373568207025528,-0.08340930193662643,0.07062474638223648,0.027098283171653748,-0.21655356884002686,-0.11557898670434952,0.04343612119555473,-0.040888410061597824,0.135817751288414,0.23466725647449493,0.03633634001016617,0.16619567573070526,-0.0825929120182991,0.24107719957828522,-0.2615281045436859,-0.015589889138936996,0.1366228461265564,-0.049913350492715836,0.22179630398750305,-0.15640975534915924,-0.15846914052963257,0.36163240671157837,-0.008797592483460903,0.0497426800429821,-0.005646065343171358,0.1212141141295433,-0.03979897499084473,-0.5158658623695374,-0.1500024050474167,0.11583166569471359,0.09941083937883377,-0.1265808492898941,0.06412360817193985,-0.09473586082458496,0.2218930423259735,-0.3494892120361328,0.02646697126328945,-0.17465683817863464,0.07447466254234314,0.09447827190160751,0.010993145406246185,0.15588237345218658,-0.15581978857517242,0.13717007637023926,0.0640302523970604,0.22899222373962402,0.12406107783317566,-0.0249959547072649,0.08559136837720871,-0.08583597093820572,0.2771485447883606,-0.11540857702493668,0.06970290839672089,-0.0387047603726387,0.17494939267635345,-0.02595008723437786,-0.03136300668120384,-0.08935464918613434,-0.23936837911605835,-0.011601824313402176,0.12635983526706696,-0.08020900189876556,-0.11052782088518143,-0.0356195829808712,-0.1546018421649933,-0.048801273107528687,0.05984766036272049,-0.04025898873806,0.16669878363609314,0.00229336554184556,-0.19036145508289337,0.18003562092781067,0.013011524453759193,-0.1467759907245636,-0.058599699288606644,-0.009123295545578003,0.1582554578781128,0.2847544848918915,0.13146263360977173,0.04350796341896057,0.20725242793560028,-0.04178868606686592,-0.10194534063339233,-0.1734790951013565,0.07001828402280807,0.006540660280734301,-0.0392020158469677,-0.027180276811122894,0.12956473231315613,-0.20974786579608917,-0.0345514751970768,0.15629345178604126,0.06753522902727127,-0.17513084411621094,0.2194281816482544,0.1992727369070053,-0.1356961727142334,-0.354633629322052,-0.00096315355040133,0.0811273381114006,-0.17590302228927612,-0.14206622540950775,-0.007494175340980291,-0.14127816259860992,0.05876590684056282,-0.11997213214635849,-0.4783644378185272,0.02127496525645256,0.07900779694318771,0.08174756914377213,0.19152915477752686,-0.030694657936692238,0.16975678503513336,0.15302476286888123,0.17434510588645935,0.2337939590215683,-0.13436253368854523,0.04833444580435753,0.03493374213576317,0.059480007737874985,-0.29570966958999634,-0.04814871773123741,-0.14084570109844208,0.3082648515701294,0.022546501830220222,-0.2468324601650238,0.13715744018554688,0.1263122409582138,0.03869488462805748,0.05725829675793648,0.06738995015621185,0.17273245751857758,0.08317101001739502,0.17116579413414001,0.27243366837501526,-0.047488607466220856,0.07867845147848129,0.14280852675437927,-0.14502917230129242,-0.0006398729747161269,0.05718681588768959,-0.19300800561904907,-0.2204628437757492,-0.06851410120725632,-0.13718882203102112,-0.022114744409918785,-0.1137397512793541,0.06543733179569244,0.03939110413193703,0.10378611832857132,-0.07578937709331512,-0.10191750526428223,0.00958002544939518,0.008942983113229275,0.03694191947579384,0.007799205370247364,0.2585544288158417,0.09376261383295059,-0.13039946556091309,0.1098598837852478,0.08232717961072922,0.10919357091188431,-0.01165369339287281,0.3280242681503296,0.03227120265364647,-0.1862393170595169,0.028705492615699768,-0.043922632932662964,0.09612325578927994,0.1316988468170166,-0.03959934040904045,-0.10695811361074448,-0.004221702925860882
